{"learner":{"attributes":{"scikit_learn":"{\"_estimator_type\": \"regressor\"}"},"feature_names":["dayofweek","weekofyear","month","dayofyear","is_weekend","is_holiday","temperature","temp_7day_avg","temp_14day_avg","7day_avg","14day_avg","28day_avg","90day_avg","7day_std","14day_std","lag_1","lag_2","lag_3","lag_7","temp_lag_1","temp_lag_2","temp_lag_7","trend","rolling_max_14","rolling_min_14"],"feature_types":["float","float","float","float","float","float","float","float","float","float","float","float","float","float","float","float","float","float","float","float","float","float","float","float","float"],"gradient_booster":{"model":{"gbtree_model_param":{"num_parallel_tree":"1","num_trees":"300"},"iteration_indptr":[0,1,2,3,4,5,6,7,8,9,10,11,12,13,14,15,16,17,18,19,20,21,22,23,24,25,26,27,28,29,30,31,32,33,34,35,36,37,38,39,40,41,42,43,44,45,46,47,48,49,50,51,52,53,54,55,56,57,58,59,60,61,62,63,64,65,66,67,68,69,70,71,72,73,74,75,76,77,78,79,80,81,82,83,84,85,86,87,88,89,90,91,92,93,94,95,96,97,98,99,100,101,102,103,104,105,106,107,108,109,110,111,112,113,114,115,116,117,118,119,120,121,122,123,124,125,126,127,128,129,130,131,132,133,134,135,136,137,138,139,140,141,142,143,144,145,146,147,148,149,150,151,152,153,154,155,156,157,158,159,160,161,162,163,164,165,166,167,168,169,170,171,172,173,174,175,176,177,178,179,180,181,182,183,184,185,186,187,188,189,190,191,192,193,194,195,196,197,198,199,200,201,202,203,204,205,206,207,208,209,210,211,212,213,214,215,216,217,218,219,220,221,222,223,224,225,226,227,228,229,230,231,232,233,234,235,236,237,238,239,240,241,242,243,244,245,246,247,248,249,250,251,252,253,254,255,256,257,258,259,260,261,262,263,264,265,266,267,268,269,270,271,272,273,274,275,276,277,278,279,280,281,282,283,284,285,286,287,288,289,290,291,292,293,294,295,296,297,298,299,300],"tree_info":[0,0,0,0,0,0,0,0,0,0,0,0,0,0,0,0,0,0,0,0,0,0,0,0,0,0,0,0,0,0,0,0,0,0,0,0,0,0,0,0,0,0,0,0,0,0,0,0,0,0,0,0,0,0,0,0,0,0,0,0,0,0,0,0,0,0,0,0,0,0,0,0,0,0,0,0,0,0,0,0,0,0,0,0,0,0,0,0,0,0,0,0,0,0,0,0,0,0,0,0,0,0,0,0,0,0,0,0,0,0,0,0,0,0,0,0,0,0,0,0,0,0,0,0,0,0,0,0,0,0,0,0,0,0,0,0,0,0,0,0,0,0,0,0,0,0,0,0,0,0,0,0,0,0,0,0,0,0,0,0,0,0,0,0,0,0,0,0,0,0,0,0,0,0,0,0,0,0,0,0,0,0,0,0,0,0,0,0,0,0,0,0,0,0,0,0,0,0,0,0,0,0,0,0,0,0,0,0,0,0,0,0,0,0,0,0,0,0,0,0,0,0,0,0,0,0,0,0,0,0,0,0,0,0,0,0,0,0,0,0,0,0,0,0,0,0,0,0,0,0,0,0,0,0,0,0,0,0,0,0,0,0,0,0,0,0,0,0,0,0,0,0,0,0,0,0,0,0,0,0,0,0,0,0,0,0,0,0,0,0,0,0,0,0,0,0,0,0,0,0],"trees":[{"base_weights":[4.291505E-2,-3.8375006E0,3.9010978E0,-5.3404207E0,-1.5284815E0,1.2653091E0,7.424619E0,-6.0772047E0,-3.8020132E0,4.447389E-1,-5.400418E0,-8.63855E-1,3.1264691E0,1.0293525E1,1.3010901E0,-6.2155466E0,2.1489716E-1,1.6292236E0,-4.150583E0,-4.8849316E0,2.3693335E0,-8.662508E-1,-3.8983684E0,1.0769786E0,-1.7329633E0,1.8631381E0,4.3552976E0,7.488486E0,1.3680162E1,2.2150755E0,-3.9605543E-1,-6.2776055E0,1.1432648E-1,-1.8567352E-1,1.524353E-1,1.9648972E-1,1.4326477E-2,-2.8504093E0,-4.765437E0,-5.679496E0,-5.7077634E-1,3.598666E-1,4.5505743E0,-4.389688E0,-1.7077637E-1,-3.053654E-1,2.1520278E0,-2.190575E0,1.23206005E-1,-1.4207585E-1,3.3088255E0,4.646404E0,-2.1423137E-1,2.365804E0,8.260799E0,4.4648972E-1,1.4232088E1,1.6691535E0,4.8292238E-1,-3.5707766E-1,7.6606315E-1,-8.3405E0,-5.9158583E0,-3.18104E0,5.24353E-1,1.1432648E-1,-4.929436E0,-6.3074985E0,1.910197E-1,1.4326477E-2,-7.8510284E-2,-8.174036E-1,1.9561214E0,1.5340942E0,6.6925015E0,-4.8849316E0,-1.5945587E0,-2.1423137E0,1.8576865E-1,9.213596E-1,-2.0945587E0,3.0337195E0,-5.7077634E-1,-1.4411745E0,-3.18104E0,1.7507133E0,-1.7544032E0,1.1039445E0,-3.325832E0,2.228051E0,5.1695724E0,5.5926285E0,2.548389E0,3.9054413E0,-5.3510284E-1,3.6578765E0,9.18198E0,1.4704367E1,3.19102E-1,2.3610282E0,-1.2612253E0,1.5332087E0,-1.5351028E0,-8.553855E-1,-2.3567353E-1,-4.7198377E0,-6.546188E0,1.910197E-1,-3.527797E0,1.4326477E-2,6.432648E-2,-5.110703E0,-8.089803E-2,-6.799239E0,-3.5707765E0,-1.3567352E-1,1.6432647E-1,-2.7779692E-1,-4.1423136E-1,3.6257133E0,2.546929E-1,2.6793187E0,-2.2851028E0,4.8798733E0,9.1027397E-1,-5.160711E0,-1.1423136E0,-2.7851028E0,5.24353E-1,-3.5673525E-2,-2.8567353E-1,2.2148972E0,-9.4558716E-2,-2.3707764E-1,-3.5673525E-2,-8.5673526E-2,3.4293187E0,5.24353E-1,-1.475647E0,-2.204189E0,4.578766E-1,-5.594559E-1,-2.1420898E0,3.7148973E-1,-1.7077637E-1,-2.9707763E-1,8.576863E-2,3.6292237E-1,1.23206005E-1,-3.9707765E-1,-1.1423136E-1,3.1135542E0,-2.535103E-1,-4.7564697E-1,6.4769154E0,2.9803488E0,7.000778E0,3.0186214E0,-8.089803E-2,1.9648972E-1,5.19102E-1,-1.1423136E0,6.432648E-2,4.5007133E-1,1.910197E-1,9.689439E0,-4.7564697E-1,1.6097726E0,1.0572181E1,6.991374E-1,3.2007608E0,6.432648E-2,-1.7707764E-1,2.2455966E0,2.2922364E-1,-1.8089804E-1,-3.5673525E-2,-3.4890196E-1,-5.564932E-1,-8.5673526E-2,-6.610624E-1,6.432648E-2,-3.5673525E-2,-3.728551E-1,1.4326477E-2,-5.850409E-1,-3.8404998E-1,-1.8567352E-1,-7.019651E-1,-8.5673526E-2,-4.035103E-1,-1.4992867E-1,4.9525805E-2,3.9598826E-1,6.432648E-2,9.054413E-2,-7.8510284E-2,-2.8089803E-1,4.0578768E-1,-3.3567354E-1,-8.089803E-2,1.4326477E-2,5.262652E-1,-1.785103E-1,-5.577797E-1,6.432648E-2,-2.3567353E-1,-8.5673526E-2,-3.1423137E-1,1.4326477E-2,6.432648E-2,6.432648E-2,2.524353E-1,-5.7077635E-2,1.1432648E-1,3.7578768E-1,1.19101964E-1,6.432648E-2,1.4326477E-2,-1.8567352E-1,-3.5673525E-2,8.576863E-2,-2.5366387E-1,1.2507133E-1,-1.8089804E-1,-3.4119737E-1,-6.34196E-2,4.6489716E-2,-1.3567352E-1,8.059359E-2,-1.785103E-1,5.245597E-1,1.7260273E-1,6.432648E-2,-1.3567352E-1,1.1432648E-1,7.0007133E-1,3.5959855E-1,-4.7564697E-2,7.672203E-1,1.910197E-2,-4.7564697E-2,3.5517773E-1,-3.5673525E-2,-1.3567352E-1,6.432648E-2,-3.5673525E-2,1.0160455E0,5.4054415E-1,-8.5673526E-2,1.4326477E-2,1.1262653E0,1.1432648E-1,-3.5102845E-3,1.0721079E-1,3.624118E-1,1.6292237E-1,2.6292238E-1,8.576863E-2,4.6489716E-2,-3.5673525E-2],"categories":[],"categories_nodes":[],"categories_segments":[],"categories_sizes":[],"default_left":[0,0,0,0,0,0,0,0,0,0,0,0,0,0,0,0,0,0,0,0,0,0,0,0,0,0,0,0,0,0,0,0,0,0,0,0,0,0,0,0,0,0,0,0,0,0,0,0,0,0,0,0,0,0,0,0,0,0,0,0,0,0,0,0,0,0,0,0,0,0,0,0,0,0,0,0,0,0,0,0,0,0,0,0,0,0,0,0,0,0,0,0,0,0,0,0,0,0,0,0,0,0,0,0,0,0,0,0,0,0,0,0,0,0,0,0,0,0,0,0,0,0,0,0,0,0,0,0,0,0,0,0,0,0,0,0,0,0,0,0,0,0,0,0,0,0,0,0,0,0,0,0,0,0,0,0,0,0,0,0,0,0,0,0,0,0,0,0,0,0,0,0,0,0,0,0,0,0,0,0,0,0,0,0,0,0,0,0,0,0,0,0,0,0,0,0,0,0,0,0,0,0,0,0,0,0,0,0,0,0,0,0,0,0,0,0,0,0,0,0,0,0,0,0,0,0,0,0,0,0,0,0,0,0,0,0,0,0,0,0,0,0,0,0,0,0,0,0,0,0,0,0,0,0,0,0,0,0,0,0,0],"id":0,"left_children":[1,3,5,7,9,11,13,15,17,19,21,23,25,27,29,31,33,35,37,39,41,-1,43,45,47,49,51,53,55,57,59,61,-1,-1,-1,-1,-1,63,65,67,69,71,73,75,77,79,81,83,85,87,89,91,-1,93,95,-1,97,99,-1,-1,101,103,105,107,109,-1,111,113,115,-1,-1,117,119,121,123,125,127,129,-1,131,133,135,137,139,141,143,145,147,149,151,153,155,157,159,161,163,165,167,-1,169,171,173,175,-1,-1,177,179,181,183,-1,-1,185,-1,187,189,-1,-1,191,-1,193,195,197,199,201,-1,203,205,207,209,-1,-1,211,213,-1,-1,-1,215,217,219,221,223,-1,225,-1,227,-1,-1,-1,229,-1,-1,231,-1,233,235,237,239,241,-1,-1,-1,243,-1,-1,245,247,249,-1,251,253,255,-1,-1,257,259,-1,-1,-1,-1,-1,-1,-1,-1,-1,-1,-1,-1,-1,-1,-1,-1,-1,-1,-1,-1,-1,-1,-1,-1,-1,-1,-1,-1,-1,-1,-1,-1,-1,-1,-1,-1,-1,-1,-1,-1,-1,-1,-1,-1,-1,-1,-1,-1,-1,-1,-1,-1,-1,-1,-1,-1,-1,-1,-1,-1,-1,-1,-1,-1,-1,-1,-1,-1,-1,-1,-1,-1,-1,-1,-1,-1,-1,-1,-1,-1,-1,-1,-1,-1,-1,-1],"loss_changes":[1.0479947E4,1.2029619E3,3.250433E3,2.1605762E2,1.0643875E3,8.031693E2,2.6217803E3,1.240708E2,1.41177E2,9.655174E2,1.9652185E2,1.6211188E2,1.5954639E2,8.665205E2,7.688443E1,7.019873E1,1.3681165E1,2.2124853E0,3.9977417E1,8.245508E1,3.007984E2,0E0,6.1519287E1,4.5239784E1,5.633055E1,1.5991031E2,1.1209485E2,2.0992285E2,1.6533203E2,3.7607162E1,6.914468E1,5.289502E1,0E0,0E0,0E0,0E0,0E0,2.844722E1,4.8272705E1,7.862543E1,8.7766695E-1,7.1130196E1,2.0294879E2,3.373877E1,2.3975697E1,3.2657715E1,4.2543037E1,3.475511E1,4.5852974E1,9.8880135E1,5.283548E1,8.897803E1,0E0,4.2286915E1,1.7841943E2,0E0,1.7208496E2,5.9746536E1,0E0,0E0,2.7068241E1,2.8208008E0,5.9569336E1,2.6398148E1,4.37904E-2,0E0,2.79823E1,1.2908325E0,8.972633E0,0E0,0E0,3.832044E1,4.4527622E1,7.173009E1,3.8588196E1,1.9908203E1,1.6596325E1,2.80787E0,0E0,1.2036594E1,2.0343647E0,2.2945808E1,5.728512E0,4.7377365E1,4.3181488E1,3.082769E1,2.4788923E1,4.4132355E1,5.321869E0,1.0068453E2,8.4263306E1,1.0788208E2,3.0859398E1,4.768509E0,3.5968802E0,2.8360214E1,2.055437E2,6.011621E1,0E0,2.9859756E1,6.961686E0,9.70363E0,6.4558697E-1,0E0,0E0,2.7390991E1,2.2198486E1,9.726336E-1,1.5273758E1,0E0,0E0,1.60542E1,0E0,3.30719E0,2.8439865E0,0E0,0E0,1.9628107E1,0E0,5.4258804E0,6.8006725E0,1.0218974E2,3.6119118E0,2.281601E1,0E0,2.2425232E1,8.02134E0,6.320572E-2,4.37904E-2,0E0,0E0,3.2157707E-1,4.189389E0,0E0,0E0,0E0,4.349228E0,4.37904E-2,6.168494E-1,2.5587769E1,2.0234991E1,0E0,3.0388596E1,0E0,4.4001555E0,0E0,0E0,0E0,1.967871E1,0E0,0E0,4.715303E1,0E0,3.8303196E0,1.7140137E1,3.1497337E1,9.912378E1,3.1497238E1,0E0,0E0,0E0,2.1339417E-2,0E0,0E0,9.726336E-1,2.3773682E1,8.3031994E-1,0E0,7.175891E1,2.502284E0,4.0753174E0,0E0,0E0,1.4720306E0,8.5632014E-1,0E0,0E0,0E0,0E0,0E0,0E0,0E0,0E0,0E0,0E0,0E0,0E0,0E0,0E0,0E0,0E0,0E0,0E0,0E0,0E0,0E0,0E0,0E0,0E0,0E0,0E0,0E0,0E0,0E0,0E0,0E0,0E0,0E0,0E0,0E0,0E0,0E0,0E0,0E0,0E0,0E0,0E0,0E0,0E0,0E0,0E0,0E0,0E0,0E0,0E0,0E0,0E0,0E0,0E0,0E0,0E0,0E0,0E0,0E0,0E0,0E0,0E0,0E0,0E0,0E0,0E0,0E0,0E0,0E0,0E0,0E0,0E0,0E0,0E0,0E0,0E0,0E0,0E0,0E0,0E0,0E0,0E0,0E0,0E0,0E0,0E0],"parents":[2147483647,0,0,1,1,2,2,3,3,4,4,5,5,6,6,7,7,8,8,9,9,10,10,11,11,12,12,13,13,14,14,15,15,16,16,17,17,18,18,19,19,20,20,22,22,23,23,24,24,25,25,26,26,27,27,28,28,29,29,30,30,31,31,37,37,38,38,39,39,40,40,41,41,42,42,43,43,44,44,45,45,46,46,47,47,48,48,49,49,50,50,51,51,53,53,54,54,56,56,57,57,60,60,61,61,62,62,63,63,64,64,66,66,67,67,68,68,71,71,72,72,73,73,74,74,75,75,76,76,77,77,79,79,80,80,81,81,82,82,83,83,84,84,85,85,86,86,87,87,88,88,89,89,90,90,91,91,92,92,93,93,94,94,95,95,96,96,97,97,99,99,100,100,101,101,102,102,105,105,106,106,107,107,108,108,111,111,113,113,114,114,117,117,119,119,120,120,121,121,122,122,123,123,125,125,126,126,127,127,128,128,131,131,132,132,136,136,137,137,138,138,139,139,140,140,142,142,144,144,148,148,151,151,153,153,154,154,155,155,156,156,157,157,161,161,164,164,165,165,166,166,168,168,169,169,170,170,173,173,174,174],"right_children":[2,4,6,8,10,12,14,16,18,20,22,24,26,28,30,32,34,36,38,40,42,-1,44,46,48,50,52,54,56,58,60,62,-1,-1,-1,-1,-1,64,66,68,70,72,74,76,78,80,82,84,86,88,90,92,-1,94,96,-1,98,100,-1,-1,102,104,106,108,110,-1,112,114,116,-1,-1,118,120,122,124,126,128,130,-1,132,134,136,138,140,142,144,146,148,150,152,154,156,158,160,162,164,166,168,-1,170,172,174,176,-1,-1,178,180,182,184,-1,-1,186,-1,188,190,-1,-1,192,-1,194,196,198,200,202,-1,204,206,208,210,-1,-1,212,214,-1,-1,-1,216,218,220,222,224,-1,226,-1,228,-1,-1,-1,230,-1,-1,232,-1,234,236,238,240,242,-1,-1,-1,244,-1,-1,246,248,250,-1,252,254,256,-1,-1,258,260,-1,-1,-1,-1,-1,-1,-1,-1,-1,-1,-1,-1,-1,-1,-1,-1,-1,-1,-1,-1,-1,-1,-1,-1,-1,-1,-1,-1,-1,-1,-1,-1,-1,-1,-1,-1,-1,-1,-1,-1,-1,-1,-1,-1,-1,-1,-1,-1,-1,-1,-1,-1,-1,-1,-1,-1,-1,-1,-1,-1,-1,-1,-1,-1,-1,-1,-1,-1,-1,-1,-1,-1,-1,-1,-1,-1,-1,-1,-1,-1,-1,-1,-1,-1,-1,-1],"split_conditions":[1.6357143E1,4E0,4E0,1.3857142E1,6E0,2.0142857E1,6E0,5.6848426E0,1.3678572E1,3.8573463E0,-3.7564213E0,4.956958E0,2.1928572E1,6.1566844E0,1.9E1,1E1,2E0,4.8493795E0,4.88925E0,9.571383E-1,4.8599434E0,-8.662508E-1,5.826867E0,1.7E1,3E0,2.0789867E1,3.7E1,1E1,7.3359632E0,7.3443556E0,1.9785715E1,1.0428572E1,1.1432648E-1,-1.8567352E-1,1.524353E-1,1.9648972E-1,1.4326477E-2,1.8E1,-7.4176216E-1,4.3094583E0,9E0,1.3714286E1,1.7297857E0,1.7E1,1E1,1.6E1,2.2E1,5.8554006E0,5.6665587E0,2.1122622E1,6.750254E0,2.46228E1,-2.1423137E-1,1.6E1,3.7352886E0,4.4648972E-1,2.8E1,2.2858982E1,4.8292238E-1,-3.5707766E-1,8.538428E0,6.947576E-1,1.1913043E1,9E0,1.3E1,1.1432648E-1,2.5E1,-8.246381E-1,2E0,1.4326477E-2,-7.8510284E-2,2.6563997E0,1.9E1,1.4142858E1,2.7E1,5.2734737E0,6.193534E-1,1.4E1,1.8576865E-1,3.8913825E0,4.619595E0,6.7396197E0,1.8935612E1,1.5581972E1,6.4807405E0,1.6E1,1.8357143E1,1.6077778E1,2.0928572E1,2.2648685E1,1E0,2E1,2.7959194E1,5E0,1.4971323E1,3.4016802E0,2.6E1,3.3E1,3.19102E-1,1.385313E1,1.6118292E1,2.2E1,2.4391321E1,-8.553855E-1,-2.3567353E-1,-2.4520502E0,3.2958515E0,1.4E1,4.7E1,1.4326477E-2,6.432648E-2,5.5948367E0,-8.089803E-2,-7.720717E0,5E0,-1.3567352E-1,1.6432647E-1,1.1E1,-4.1423136E-1,1.0590803E1,1.5928572E1,-6.858024E0,8E0,2.9863853E0,9.1027397E-1,8E0,1E1,1.1E1,1.1E1,-3.5673525E-2,-2.8567353E-1,1.8E1,5.429198E0,-2.3707764E-1,-3.5673525E-2,-8.5673526E-2,1E0,1E0,1E0,9E0,3.5E1,-5.594559E-1,1.25985985E1,3.7148973E-1,1.6756765E1,-2.9707763E-1,8.576863E-2,3.6292237E-1,5.9336996E0,-3.9707765E-1,-1.1423136E-1,1E0,-2.535103E-1,2.1E1,6E0,2.3663134E1,3.6E1,2.1934898E1,-8.089803E-2,1.9648972E-1,5.19102E-1,4E1,6.432648E-2,4.5007133E-1,5E0,3.7E1,2.1E1,1.6097726E0,2.2726015E1,2.2E1,5.9336996E0,6.432648E-2,-1.7707764E-1,1.9E1,3.3E1,-1.8089804E-1,-3.5673525E-2,-3.4890196E-1,-5.564932E-1,-8.5673526E-2,-6.610624E-1,6.432648E-2,-3.5673525E-2,-3.728551E-1,1.4326477E-2,-5.850409E-1,-3.8404998E-1,-1.8567352E-1,-7.019651E-1,-8.5673526E-2,-4.035103E-1,-1.4992867E-1,4.9525805E-2,3.9598826E-1,6.432648E-2,9.054413E-2,-7.8510284E-2,-2.8089803E-1,4.0578768E-1,-3.3567354E-1,-8.089803E-2,1.4326477E-2,5.262652E-1,-1.785103E-1,-5.577797E-1,6.432648E-2,-2.3567353E-1,-8.5673526E-2,-3.1423137E-1,1.4326477E-2,6.432648E-2,6.432648E-2,2.524353E-1,-5.7077635E-2,1.1432648E-1,3.7578768E-1,1.19101964E-1,6.432648E-2,1.4326477E-2,-1.8567352E-1,-3.5673525E-2,8.576863E-2,-2.5366387E-1,1.2507133E-1,-1.8089804E-1,-3.4119737E-1,-6.34196E-2,4.6489716E-2,-1.3567352E-1,8.059359E-2,-1.785103E-1,5.245597E-1,1.7260273E-1,6.432648E-2,-1.3567352E-1,1.1432648E-1,7.0007133E-1,3.5959855E-1,-4.7564697E-2,7.672203E-1,1.910197E-2,-4.7564697E-2,3.5517773E-1,-3.5673525E-2,-1.3567352E-1,6.432648E-2,-3.5673525E-2,1.0160455E0,5.4054415E-1,-8.5673526E-2,1.4326477E-2,1.1262653E0,1.1432648E-1,-3.5102845E-3,1.0721079E-1,3.624118E-1,1.6292237E-1,2.6292238E-1,8.576863E-2,4.6489716E-2,-3.5673525E-2],"split_indices":[10,0,0,10,0,10,0,6,11,14,19,14,10,13,18,24,0,14,13,6,13,0,13,16,0,19,16,24,7,14,10,10,0,0,0,0,0,18,7,13,1,10,6,17,18,16,16,13,14,8,14,7,0,16,13,0,17,20,0,0,13,6,12,16,1,0,16,19,1,0,0,6,18,10,23,13,7,1,0,13,14,20,6,20,13,18,10,12,11,8,0,17,6,0,6,13,16,1,0,6,6,10,7,0,0,7,14,1,1,0,0,14,0,6,1,0,0,17,0,6,10,19,1,6,0,18,1,1,1,0,0,1,13,0,0,0,5,0,0,18,23,0,19,0,8,0,0,0,14,0,0,0,0,1,2,8,1,19,0,0,0,1,0,0,0,1,1,0,6,16,14,0,0,17,1,0,0,0,0,0,0,0,0,0,0,0,0,0,0,0,0,0,0,0,0,0,0,0,0,0,0,0,0,0,0,0,0,0,0,0,0,0,0,0,0,0,0,0,0,0,0,0,0,0,0,0,0,0,0,0,0,0,0,0,0,0,0,0,0,0,0,0,0,0,0,0,0,0,0,0,0,0,0,0,0,0,0,0,0,0,0],"split_type":[0,0,0,0,0,0,0,0,0,0,0,0,0,0,0,0,0,0,0,0,0,0,0,0,0,0,0,0,0,0,0,0,0,0,0,0,0,0,0,0,0,0,0,0,0,0,0,0,0,0,0,0,0,0,0,0,0,0,0,0,0,0,0,0,0,0,0,0,0,0,0,0,0,0,0,0,0,0,0,0,0,0,0,0,0,0,0,0,0,0,0,0,0,0,0,0,0,0,0,0,0,0,0,0,0,0,0,0,0,0,0,0,0,0,0,0,0,0,0,0,0,0,0,0,0,0,0,0,0,0,0,0,0,0,0,0,0,0,0,0,0,0,0,0,0,0,0,0,0,0,0,0,0,0,0,0,0,0,0,0,0,0,0,0,0,0,0,0,0,0,0,0,0,0,0,0,0,0,0,0,0,0,0,0,0,0,0,0,0,0,0,0,0,0,0,0,0,0,0,0,0,0,0,0,0,0,0,0,0,0,0,0,0,0,0,0,0,0,0,0,0,0,0,0,0,0,0,0,0,0,0,0,0,0,0,0,0,0,0,0,0,0,0,0,0,0,0,0,0,0,0,0,0,0,0,0,0,0,0,0,0],"sum_hessian":[6.98E2,3.48E2,3.5E2,2.1E2,1.38E2,2.01E2,1.49E2,1.4E2,7E1,9.2E1,4.6E1,9.4E1,1.07E2,1.01E2,4.8E1,1.37E2,3E0,4E0,6.6E1,2.4E1,6.8E1,1.3E1,3.3E1,2.9E1,6.5E1,5.4E1,5.3E1,5.7E1,4.4E1,3.1E1,1.7E1,1.36E2,1E0,1E0,2E0,3E0,1E0,2.3E1,4.3E1,2E1,4E0,3.6E1,3.2E1,2.9E1,4E0,1.3E1,1.6E1,5.2E1,1.3E1,2.3E1,3.1E1,5.1E1,2E0,8E0,4.9E1,3E0,4.1E1,2.7E1,4E0,4E0,1.3E1,1.7E1,1.19E2,2.1E1,2E0,1E0,4.2E1,1.8E1,2E0,1E0,3E0,2.1E1,1.5E1,1.4E1,1.8E1,2.4E1,5E0,2E0,2E0,8E0,5E0,1.2E1,4E0,3.1E1,2.1E1,7E0,6E0,1.7E1,6E0,2.1E1,1E1,3.4E1,1.7E1,5E0,3E0,9E0,4E1,3.9E1,2E0,2.2E1,5E0,1E1,3E0,1.6E1,1E0,4.4E1,7.5E1,2E0,1.9E1,1E0,1E0,4E1,2E0,1.4E1,4E0,1E0,1E0,1.9E1,2E0,7E0,8E0,1.1E1,3E0,1.2E1,6E0,2.2E1,2E0,3E0,2E0,1E0,1E0,3E0,5E0,4E0,1E0,1E0,1.1E1,2E0,2E0,2.2E1,9E0,5E0,1.6E1,3E0,4E0,4E0,2E0,4E0,1.3E1,4E0,2E0,1.8E1,3E0,2E0,8E0,1.3E1,2.1E1,1.5E1,2E0,3E0,2E0,2E0,1E0,7E0,2E0,3.8E1,2E0,2.7E1,1.2E1,8E0,1.4E1,1E0,4E0,6E0,4E0,2E0,1E0,2E1,2.4E1,1E0,7.4E1,1E0,1E0,1.8E1,1E0,2.3E1,1.7E1,1E0,1.3E1,1E0,3E0,7E0,1.2E1,6E0,1E0,5E0,3E0,2E0,9E0,1E0,2E0,1E0,1.1E1,3E0,1.9E1,1E0,1E0,1E0,2E0,1E0,1E0,1E0,2E0,4E0,1E0,9E0,2E0,1E0,1E0,1E0,1E0,2E0,2E1,7E0,2E0,8E0,8E0,3E0,1E0,1E1,3E0,6E0,1.2E1,1E0,1E0,1E0,7E0,1.1E1,2E0,1.9E1,2E0,2E0,1.3E1,1E0,1E0,1E0,1E0,3.3E1,5E0,1E0,1E0,1.1E1,1E0,3E0,5E0,1E1,4E0,4E0,2E0,3E0,1E0],"tree_param":{"num_deleted":"0","num_feature":"25","num_nodes":"261","size_leaf_vector":"1"}},{"base_weights":[1.1374133E-1,-3.1620383E0,3.5865145E0,-6.410223E0,-1.5175794E0,-8.58708E-2,6.7259603E0,-7.032852E0,-1.6659786E0,-2.6103804E0,2.9091651E0,-3.119747E0,1.4466285E0,3.4288797E0,1.06726885E1,-8.4320736E-1,-5.6329627E0,-3.6648798E0,5.411701E-1,-3.7277546E0,4.8619562E-1,6.958841E-1,4.67005E0,-6.342512E-1,-2.3896418E0,-2.1441622E-1,3.8642035E0,1.8836218E0,5.4811673E0,7.6334043E0,1.2819244E1,-7.279943E-1,-3.515948E0,-3.880478E-1,-1.0778456E-1,-5.839437E-2,1.013532E0,-5.528556E0,-1.9251765E0,-1.7386286E0,3.0615659E0,-7.828302E-1,4.7695937E0,3.5689666E0,7.1488535E-1,-2.7918715E0,-2.30623E-1,-2.0255957E0,5.148204E-1,1.9776369E0,7.496077E-1,7.1950305E-1,4.0594726E0,3.9969409E0,8.1641245E0,3.9199755E0,9.561865E-1,1.0625725E1,1.6644138E0,-3.603409E0,-6.6471E-2,1.8741418E-2,1.3797374E-1,-6.4910173E0,-4.212866E0,-3.6679826E0,7.928854E-2,-3.350143E0,1.0564519E0,1.5698456E0,4.6817946E0,-1.4727477E0,4.1315868E-1,5.147365E-1,1.4403705E-1,1.6371893E0,4.720386E-1,-3.8377872E-1,-2.1363206E0,-7.0240594E-2,4.3705624E-2,-2.998231E0,-7.1982384E-1,-1.6237482E0,1.2544675E0,9.729745E-1,2.6295767E0,-1.6140826E-1,5.591417E-1,2.003487E0,4.7975025E-1,2.4250853E0,6.348606E0,8.521418E-1,1.759655E-1,1.3154713E0,4.8302298E0,8.3159584E-1,1.217458E1,-3.6664987E-1,-1.04462914E-1,-2.7016056E-1,-6.626496E-1,-5.428258E-1,-2.262486E0,-4.3497295E0,-2.3326552E0,-8.1116056E-1,5.4042333E-1,-4.918583E-1,-1.9049011E0,2.149962E0,-6.857525E-1,4.6612423E-2,2.410907E-1,5.06303E-1,1.9774888E-1,-1.7604315E-1,-5.2919295E-2,-3.3183956E-1,1.0548673E-1,1.8122125E-1,1.1850166E-2,-2.51973E-1,-1.0066097E0,-1.0369937E-2,1.4333296E-2,-3.1499708E-1,-8.162861E-2,-8.460567E-2,1.45019535E-2,6.003809E-2,-1.8805218E0,3.5163218E-1,2.2481804E0,1.3953222E0,1.8153762E-2,2.7202177E0,5.896597E-2,-1.165457E0,1.3561941E0,8.136006E-2,2.3167217E0,1.2477188E0,2.8725069E0,6.631536E-1,1.759655E-1,2.318039E-2,1.5284371E-1,2.6329774E-1,5.8562356E-1,1.2510265E0,3.401804E-1,-2.57059E-1,-8.495789E-2,-4.766809E-1,-2.91972E-1,-2.871897E-1,-1.654061E-1,-1.6535145E-1,-1.832943E-2,-5.5131912E-2,9.581748E-2,-2.4304569E-1,-3.7756443E-2,6.938954E-2,2.5936097E-1,-1.314122E-1,1.7120106E-2,6.1850168E-2,-1.9146577E-2,-6.9366456E-3,-5.5962946E-2,-1.224242E-1,-4.8291683E-2,-2.092578E-1,1.2001991E-2,-9.53074E-2,1.0271176E-1,1.0394355E-1,3.3269957E-1,1.7180348E-2,1.5267865E-1,-3.2819655E-2,1.8679047E-2,2.812626E-1,6.670475E-2,-1.491952E-3,-1.7396602E-1,-7.674799E-2,1.5785906E-1,2.6055375E-1,5.807295E-2,7.7001765E-2,2.056963E-1,1.1011791E-1,3.2937875E-1],"categories":[],"categories_nodes":[],"categories_segments":[],"categories_sizes":[],"default_left":[0,0,0,0,0,0,0,0,0,0,0,0,0,0,0,0,0,0,0,0,0,0,0,0,0,0,0,0,0,0,0,0,0,0,0,0,0,0,0,0,0,0,0,0,0,0,0,0,0,0,0,0,0,0,0,0,0,0,0,0,0,0,0,0,0,0,0,0,0,0,0,0,0,0,0,0,0,0,0,0,0,0,0,0,0,0,0,0,0,0,0,0,0,0,0,0,0,0,0,0,0,0,0,0,0,0,0,0,0,0,0,0,0,0,0,0,0,0,0,0,0,0,0,0,0,0,0,0,0,0,0,0,0,0,0,0,0,0,0,0,0,0,0,0,0,0,0,0,0,0,0,0,0,0,0,0,0,0,0,0,0,0,0,0,0,0,0,0,0,0,0,0,0,0,0,0,0,0,0,0,0,0,0,0,0,0,0,0,0,0,0,0,0,0,0,0,0],"id":1,"left_children":[1,3,5,7,9,11,13,15,17,19,21,23,25,27,29,-1,31,33,35,37,39,41,43,-1,45,47,49,51,53,55,57,-1,59,-1,-1,-1,61,63,65,67,69,71,73,75,-1,77,79,81,83,85,-1,87,89,91,93,95,-1,97,-1,99,-1,-1,-1,101,103,105,107,109,111,113,115,117,119,-1,-1,121,-1,-1,123,-1,125,127,129,131,133,135,137,139,-1,141,-1,143,145,-1,-1,147,149,-1,151,-1,-1,-1,-1,-1,153,155,157,159,161,-1,163,165,167,169,-1,-1,-1,-1,-1,171,-1,-1,-1,-1,173,-1,-1,-1,-1,-1,-1,-1,175,177,179,181,183,185,-1,187,189,-1,191,193,195,-1,-1,-1,-1,-1,-1,-1,-1,-1,-1,-1,-1,-1,-1,-1,-1,-1,-1,-1,-1,-1,-1,-1,-1,-1,-1,-1,-1,-1,-1,-1,-1,-1,-1,-1,-1,-1,-1,-1,-1,-1,-1,-1,-1,-1,-1,-1,-1,-1,-1,-1,-1],"loss_changes":[7.781176E3,1.8704822E3,3.8282905E3,3.3684424E2,1.1444186E3,7.205227E2,2.2926738E3,1.5621338E2,6.816141E1,6.557588E2,1.7992484E2,1.0719748E2,4.1444568E2,3.0363562E2,4.3058887E2,0E0,1.6617163E2,2.7952576E-1,4.8435326E0,4.405625E2,2.9753998E2,1.3625854E2,4.5449585E1,0E0,3.7566727E1,8.293108E1,2.7294983E2,1.4399022E2,1.3461743E2,2.2032129E2,2.0908301E2,0E0,4.08844E0,0E0,0E0,0E0,1.5565906E0,6.0029053E1,2.4832178E2,1.2966E2,5.06566E1,1.4635751E1,1.3198853E-1,3.675757E1,0E0,1.717035E1,1.0660876E0,2.0702515E1,7.321731E1,1.643589E1,0E0,1.6827972E2,2.073581E1,9.180194E1,1.7041016E1,2.6836624E1,0E0,1.3236816E1,0E0,2.0568848E-1,0E0,0E0,0E0,1.6063232E0,6.3573853E1,2.4447113E1,1.4399351E1,3.1432526E1,2.2430643E1,1.7823483E1,1.328659E0,2.0542908E0,3.6965492E0,0E0,0E0,2.1775017E0,0E0,0E0,8.292152E0,0E0,1.0297694E-1,7.3960114E-1,1.1052399E0,7.9821987E0,2.9712875E1,5.2171316E0,1.539299E0,5.3387978E1,0E0,7.2410965E-1,0E0,6.424713E0,2.612671E0,0E0,0E0,7.996235E-1,7.1246185E0,0E0,7.505615E0,0E0,0E0,0E0,0E0,0E0,3.9105911E0,3.965149E-1,7.386017E-1,6.043547E0,1.1018029E1,0E0,7.912052E0,2.7221718E0,2.9173958E0,9.35348E-1,0E0,0E0,0E0,0E0,0E0,2.0033532E-1,0E0,0E0,0E0,0E0,3.2057285E-1,0E0,0E0,0E0,0E0,0E0,0E0,0E0,4.917652E0,1.7723812E1,1.7406006E1,1.1853333E0,3.5334083E-1,1.159523E0,0E0,1.3847532E1,7.823702E0,0E0,9.937954E-1,1.1221409E0,6.0738907E0,0E0,0E0,0E0,0E0,0E0,0E0,0E0,0E0,0E0,0E0,0E0,0E0,0E0,0E0,0E0,0E0,0E0,0E0,0E0,0E0,0E0,0E0,0E0,0E0,0E0,0E0,0E0,0E0,0E0,0E0,0E0,0E0,0E0,0E0,0E0,0E0,0E0,0E0,0E0,0E0,0E0,0E0,0E0,0E0,0E0,0E0,0E0,0E0,0E0,0E0,0E0,0E0],"parents":[2147483647,0,0,1,1,2,2,3,3,4,4,5,5,6,6,7,7,8,8,9,9,10,10,11,11,12,12,13,13,14,14,16,16,17,17,18,18,19,19,20,20,21,21,22,22,24,24,25,25,26,26,27,27,28,28,29,29,30,30,32,32,36,36,37,37,38,38,39,39,40,40,41,41,42,42,43,43,45,45,46,46,47,47,48,48,49,49,51,51,52,52,53,53,54,54,55,55,57,57,59,59,63,63,64,64,65,65,66,66,67,67,68,68,69,69,70,70,71,71,72,72,75,75,78,78,80,80,81,81,82,82,83,83,84,84,85,85,86,86,87,87,89,89,91,91,92,92,95,95,96,96,98,98,104,104,105,105,106,106,107,107,108,108,110,110,111,111,112,112,113,113,119,119,124,124,132,132,133,133,134,134,135,135,136,136,137,137,139,139,140,140,142,142,143,143,144,144],"right_children":[2,4,6,8,10,12,14,16,18,20,22,24,26,28,30,-1,32,34,36,38,40,42,44,-1,46,48,50,52,54,56,58,-1,60,-1,-1,-1,62,64,66,68,70,72,74,76,-1,78,80,82,84,86,-1,88,90,92,94,96,-1,98,-1,100,-1,-1,-1,102,104,106,108,110,112,114,116,118,120,-1,-1,122,-1,-1,124,-1,126,128,130,132,134,136,138,140,-1,142,-1,144,146,-1,-1,148,150,-1,152,-1,-1,-1,-1,-1,154,156,158,160,162,-1,164,166,168,170,-1,-1,-1,-1,-1,172,-1,-1,-1,-1,174,-1,-1,-1,-1,-1,-1,-1,176,178,180,182,184,186,-1,188,190,-1,192,194,196,-1,-1,-1,-1,-1,-1,-1,-1,-1,-1,-1,-1,-1,-1,-1,-1,-1,-1,-1,-1,-1,-1,-1,-1,-1,-1,-1,-1,-1,-1,-1,-1,-1,-1,-1,-1,-1,-1,-1,-1,-1,-1,-1,-1,-1,-1,-1,-1,-1,-1,-1,-1],"split_conditions":[1.6857143E1,-1.7857143E-1,-4.347826E-2,2.2E1,1.6E1,2E1,4E0,-3.5714287E-1,-3.5714287E-1,6.923077E-1,3.7037037E-2,-2.8E-1,-2.3529412E-1,2.0964285E1,2E1,-8.4320736E-1,1.5E1,4.5454845E0,1.4571428E1,1.1E1,9E0,2.2E1,2E-1,-6.342512E-1,-6.25E-2,2.4E1,2.8E1,4.6666667E-1,3.1578946E-1,4.1666666E-1,4.117647E-1,-7.279943E-1,2.3E1,-3.880478E-1,-1.0778456E-1,-5.839437E-2,1.9297498E0,2.631579E-1,9.52381E-2,1.4285715E0,1.1E1,1.8E1,5E0,1.8E1,7.1488535E-1,1.7E1,9.831849E0,-3.1578946E-1,-4.5454547E-1,7E0,7.496077E-1,1.9E1,1.3E1,2.1E1,2.8E1,1.7E1,9.561865E-1,2.4E1,1.6644138E0,9.062981E0,-6.6471E-2,1.8741418E-2,1.3797374E-1,-8.204581E0,9E0,1.4E1,2.631579E-1,7E0,1.5E1,9E-1,2E1,-5.7142857E-2,-1.0526316E-1,5.147365E-1,1.4403705E-1,1.4E1,4.720386E-1,-3.8377872E-1,-1.6E-1,-7.0240594E-2,9E0,3E0,5E0,1.1666178E1,2.8E1,1.7899704E1,2.96E2,1.5E1,5.591417E-1,1.0715173E1,4.7975025E-1,1.7E1,2.6126558E1,8.521418E-1,1.759655E-1,1.34E2,2.3809524E-1,8.3159584E-1,6E0,-3.6664987E-1,-1.04462914E-1,-2.7016056E-1,-6.626496E-1,-5.428258E-1,5.714286E-1,3.7037037E-2,-6.25E-2,1.2E1,1.2E1,-4.918583E-1,1.2714286E1,3E0,3E0,7E0,2.410907E-1,5.06303E-1,1.9774888E-1,-1.7604315E-1,-5.2919295E-2,5E0,1.0548673E-1,1.8122125E-1,1.1850166E-2,-2.51973E-1,1.8E1,-1.0369937E-2,1.4333296E-2,-3.1499708E-1,-8.162861E-2,-8.460567E-2,1.45019535E-2,6.003809E-2,2.3214285E1,-3.6842105E-1,-3.888889E-1,6.7567315E0,1.42E2,2.7E1,5.896597E-2,5.2691307E0,1E0,8.136006E-2,1.2416499E1,3E0,1.7E1,6.631536E-1,1.759655E-1,2.318039E-2,1.5284371E-1,2.6329774E-1,5.8562356E-1,1.2510265E0,3.401804E-1,-2.57059E-1,-8.495789E-2,-4.766809E-1,-2.91972E-1,-2.871897E-1,-1.654061E-1,-1.6535145E-1,-1.832943E-2,-5.5131912E-2,9.581748E-2,-2.4304569E-1,-3.7756443E-2,6.938954E-2,2.5936097E-1,-1.314122E-1,1.7120106E-2,6.1850168E-2,-1.9146577E-2,-6.9366456E-3,-5.5962946E-2,-1.224242E-1,-4.8291683E-2,-2.092578E-1,1.2001991E-2,-9.53074E-2,1.0271176E-1,1.0394355E-1,3.3269957E-1,1.7180348E-2,1.5267865E-1,-3.2819655E-2,1.8679047E-2,2.812626E-1,6.670475E-2,-1.491952E-3,-1.7396602E-1,-7.674799E-2,1.5785906E-1,2.6055375E-1,5.807295E-2,7.7001765E-2,2.056963E-1,1.1011791E-1,3.2937875E-1],"split_indices":[9,22,22,15,15,15,0,22,22,22,22,22,22,11,15,0,15,19,9,15,15,15,22,0,22,15,15,22,22,22,22,0,16,0,0,0,19,22,22,22,15,15,2,15,0,15,7,22,22,2,0,15,15,15,18,15,0,15,0,6,0,0,0,20,15,15,22,15,17,22,18,22,22,0,0,17,0,0,22,0,2,0,0,20,15,8,3,15,0,7,0,15,6,0,0,3,22,0,0,0,0,0,0,0,22,22,22,18,15,0,9,0,2,16,0,0,0,0,0,2,0,0,0,0,15,0,0,0,0,0,0,0,11,22,22,6,3,17,0,14,0,0,6,0,16,0,0,0,0,0,0,0,0,0,0,0,0,0,0,0,0,0,0,0,0,0,0,0,0,0,0,0,0,0,0,0,0,0,0,0,0,0,0,0,0,0,0,0,0,0,0,0,0,0,0,0,0],"split_type":[0,0,0,0,0,0,0,0,0,0,0,0,0,0,0,0,0,0,0,0,0,0,0,0,0,0,0,0,0,0,0,0,0,0,0,0,0,0,0,0,0,0,0,0,0,0,0,0,0,0,0,0,0,0,0,0,0,0,0,0,0,0,0,0,0,0,0,0,0,0,0,0,0,0,0,0,0,0,0,0,0,0,0,0,0,0,0,0,0,0,0,0,0,0,0,0,0,0,0,0,0,0,0,0,0,0,0,0,0,0,0,0,0,0,0,0,0,0,0,0,0,0,0,0,0,0,0,0,0,0,0,0,0,0,0,0,0,0,0,0,0,0,0,0,0,0,0,0,0,0,0,0,0,0,0,0,0,0,0,0,0,0,0,0,0,0,0,0,0,0,0,0,0,0,0,0,0,0,0,0,0,0,0,0,0,0,0,0,0,0,0,0,0,0,0,0,0],"sum_hessian":[6.82E2,3.51E2,3.31E2,1.17E2,2.34E2,1.53E2,1.78E2,1.03E2,1.4E1,1.88E2,4.6E1,5.1E1,1.02E2,9.8E1,8E1,4.9E1,5.4E1,7E0,7E0,1.38E2,5E1,2.1E1,2.5E1,8E0,4.3E1,6.1E1,4.1E1,5.7E1,4.1E1,3.5E1,4.5E1,2.9E1,2.5E1,6E0,1E0,2E0,5E0,6.8E1,7E1,2.7E1,2.3E1,1.6E1,5E0,1.9E1,6E0,3.6E1,7E0,1.7E1,4.4E1,2.8E1,1.3E1,3.8E1,1.9E1,2.8E1,1.3E1,1.3E1,2.2E1,3.1E1,1.4E1,2.4E1,1E0,2E0,3E0,3.7E1,3.1E1,3.7E1,3.3E1,1.7E1,1E1,1.3E1,1E1,1E1,6E0,4E0,1E0,8E0,1.1E1,1.2E1,2.4E1,2E0,5E0,9E0,8E0,1.1E1,3.3E1,1.2E1,1.6E1,3.3E1,5E0,6E0,1.3E1,1.8E1,1E1,1.2E1,1E0,4E0,9E0,1.5E1,1.6E1,2.3E1,1E0,2E0,3.5E1,1.8E1,1.3E1,2.3E1,1.4E1,1.1E1,2.2E1,7E0,1E1,6E0,4E0,5E0,8E0,8E0,2E0,7E0,3E0,3E0,3E0,7E0,1E0,1.7E1,7E0,2E0,3E0,8E0,1E0,7E0,1E0,1E0,1E1,1.8E1,1.5E1,8E0,4E0,1.5E1,1E0,2E1,1.3E1,2E0,4E0,6E0,1.2E1,9E0,1E0,1E0,3E0,4E0,5E0,1.5E1,1E0,1E1,3E0,1.6E1,7E0,6E0,8E0,4E0,7E0,6E0,1.6E1,7E0,3E0,2E0,4E0,2E0,2E0,1E0,4E0,2E0,1E0,4E0,3E0,9E0,1E0,6E0,1.2E1,8E0,7E0,1E0,7E0,1E0,3E0,1.4E1,1E0,7E0,1.3E1,1E0,1.2E1,3E0,1E0,5E0,1E0,3E0,9E0],"tree_param":{"num_deleted":"0","num_feature":"25","num_nodes":"197","size_leaf_vector":"1"}},{"base_weights":[2.219753E-2,-2.5250177E0,3.8846214E0,-5.671465E0,-9.6525085E-1,1.1538312E0,7.152339E0,-6.503354E0,-1.6511906E0,-2.6939936E0,1.1999421E0,-9.498975E-1,3.2423782E0,4.551496E0,9.984612E0,-7.540104E0,-4.7461133E0,-3.1458054E0,2.3012574E-1,-5.130107E0,-1.0326198E0,-6.87726E-1,3.5380998E0,-3.060578E0,8.312002E-2,4.823222E-1,6.8241987E0,3.519603E0,7.3794394E0,8.254775E0,1.4508485E0,-8.084284E-1,-5.775441E0,-6.355106E-1,-3.2047153E0,-4.0992185E-1,-1.60679E0,-6.9131184E-1,9.870543E-1,-6.3701785E-1,-4.086539E0,-2.3242428E0,7.691774E-1,-1.9095817E0,3.5553856E0,1.0273502E0,4.7996373E0,-4.9732146E-1,-2.0404854E0,-8.943917E-1,1.5687037E0,-1.1515489E0,1.4570895E0,3.5801082E0,7.5599113E0,2.7050748E0,6.588661E-1,3.4643826E-1,8.3175814E-1,5.8955812E0,1.0255065E1,-7.3060626E-1,-4.1461888E-1,-3.4140942E-1,-1.2519518E-1,-2.0722711E-1,5.930481E-2,-8.838337E-2,1.3564873E-2,-1.1623827E-1,1.451619E-1,-4.4044408E-1,-2.3835874E-1,-3.782867E0,-4.2257926E-1,-5.8318925E-1,3.062001E0,-2.4062903E0,-2.83057E-1,1.7388932E0,5.642463E-1,5.948461E-2,3.275789E-1,3.2774823E0,6.397615E0,-3.1614682E-1,-1.3661481E0,-1.6627674E0,-1.1860331E-1,5.65547E-1,2.615621E-1,-1.5763892E0,6.232796E-1,4.4309273E-1,3.2379744E0,3.856457E-1,8.22834E-2,2.226303E-1,7.6842036E0,9.6067214E-1,3.0265076E0,1.280211E-1,6.274178E0,4.1470477E-1,1.0639302E1,1.2673092E-2,-3.0108834E-2,-4.713254E-1,-1.9169832E0,-1.6191808E0,8.065284E-1,-1.514255E0,3.230283E-1,1.8229048E0,4.217696E0,-3.2424822E-1,-1.4987303E0,-1.0899644E0,9.7448036E-2,1.9095565E0,1.0146141E-2,1.17686525E-1,-2.029482E-1,1.2570074E0,4.688088E-1,3.7383502E0,7.5082725E-1,-1.72982E-1,-6.53561E-2,3.5082307E-1,-1.975482E0,-1.2961429E0,4.800501E-1,-1.1876726E-1,8.068481E-1,1.607132E-2,-1.8431386E0,8.413029E-3,7.749526E-2,-4.8876464E-1,1.1652404E0,3.5317236E-1,2.9711628E-2,8.03101E-1,3.8557172E-1,1.6674083E-1,-1.6291618E-1,1.9084505E0,3.769628E0,1.7999674E-1,6.6504127E-1,5.350222E-1,1.1223581E1,-2.379469E-1,-7.9360925E-2,-2.2672038E-1,4.0567208E-2,3.4953672E-2,1.7473756E-1,-1.9891404E-1,-3.566105E-2,-6.1793663E-2,6.358311E-2,5.486107E-2,2.3686169E-1,9.979563E-2,4.5879933E-1,-1.7363535E-1,-5.7567596E-2,-1.7129026E-1,-6.672817E-2,7.3486075E-2,2.1402037E-1,-6.7410335E-2,2.9719952E-2,-7.553673E-3,1.8388888E-1,4.6299958E-1,1.912117E-1,5.21451E-2,4.7836304E-4,-2.0600803E-1,-4.3785192E-2,-1.4062172E-1,-3.7288573E-2,6.5781185E-3,8.8335544E-2,-3.1178666E-2,4.950142E-3,3.6743928E-2,9.6531264E-2,-8.991241E-3,1.1401939E-2,2.2464847E-2,-2.0515418E-1,1.5628958E-2,-8.3734006E-2,1.7031804E-1,6.145347E-2,-5.9915353E-2,1.822141E-2,1.0738999E-1,2.82803E-1,3.9086118E-1,5.6446742E-2,1.153019E0,3.005621E-1],"categories":[],"categories_nodes":[],"categories_segments":[],"categories_sizes":[],"default_left":[0,0,0,0,0,0,0,0,0,0,0,0,0,0,0,0,0,0,0,0,0,0,0,0,0,0,0,0,0,0,0,0,0,0,0,0,0,0,0,0,0,0,0,0,0,0,0,0,0,0,0,0,0,0,0,0,0,0,0,0,0,0,0,0,0,0,0,0,0,0,0,0,0,0,0,0,0,0,0,0,0,0,0,0,0,0,0,0,0,0,0,0,0,0,0,0,0,0,0,0,0,0,0,0,0,0,0,0,0,0,0,0,0,0,0,0,0,0,0,0,0,0,0,0,0,0,0,0,0,0,0,0,0,0,0,0,0,0,0,0,0,0,0,0,0,0,0,0,0,0,0,0,0,0,0,0,0,0,0,0,0,0,0,0,0,0,0,0,0,0,0,0,0,0,0,0,0,0,0,0,0,0,0,0,0,0,0,0,0,0,0,0,0,0,0,0,0,0,0,0,0,0,0,0,0,0,0],"id":2,"left_children":[1,3,5,7,9,11,13,15,17,19,21,23,25,27,29,31,33,35,37,39,41,43,45,47,49,51,53,55,57,59,-1,-1,61,-1,63,-1,65,67,69,-1,71,73,75,77,79,81,83,-1,85,87,89,91,93,95,97,99,-1,-1,-1,101,103,-1,-1,-1,-1,-1,-1,-1,-1,105,-1,-1,-1,107,109,111,113,115,117,119,-1,121,-1,123,125,-1,127,129,131,133,-1,135,137,139,141,-1,-1,-1,143,145,147,-1,149,-1,151,-1,-1,-1,153,155,157,159,161,163,165,-1,167,169,-1,171,-1,-1,173,175,-1,177,-1,-1,-1,179,181,183,185,187,189,191,193,-1,-1,195,197,-1,-1,-1,-1,-1,199,201,203,-1,-1,-1,205,-1,-1,-1,-1,-1,-1,-1,-1,-1,-1,-1,-1,-1,-1,-1,-1,-1,-1,-1,-1,-1,-1,-1,-1,-1,-1,-1,-1,-1,-1,-1,-1,-1,-1,-1,-1,-1,-1,-1,-1,-1,-1,-1,-1,-1,-1,-1,-1,-1,-1,-1,-1,-1,-1],"loss_changes":[6.8081606E3,2.0410464E3,2.4456963E3,4.5079248E2,1.0512899E3,6.6653406E2,8.753428E2,1.7190088E2,7.102001E1,6.2608057E2,5.5414154E2,1.6596252E2,7.480466E2,1.6954224E2,3.4194385E2,2.053003E1,9.12381E1,1.3955856E1,9.051911E0,5.5496216E1,2.2054858E2,3.6970218E2,1.7244373E2,3.862892E1,7.691615E1,7.175425E1,5.169641E1,1.096687E2,3.3623657E1,1.518982E2,0E0,0E0,1.9583069E1,0E0,5.947418E0,0E0,8.396839E0,1.0751388E0,3.7565885E0,0E0,9.53241E0,1.5096112E2,1.2581525E2,4.375389E1,5.084691E1,4.332887E1,6.90296E1,0E0,9.287544E0,1.8877895E1,2.0575413E1,1.3800848E1,4.912799E1,2.9225235E0,1.2866211E-1,2.0642242E1,0E0,0E0,0E0,3.2157104E1,9.85791E0,0E0,0E0,0E0,0E0,0E0,0E0,0E0,0E0,1.7289582E-1,0E0,0E0,0E0,4.478058E1,3.807472E1,2.24266E1,1.3791809E1,2.7013962E1,1.5268176E1,2.600748E0,0E0,4.637403E0,0E0,5.3958984E1,2.214154E1,0E0,2.2383785E0,1.076791E1,1.2606161E1,2.0773365E0,0E0,5.97665E0,2.6190066E-1,1.3355363E1,7.589424E0,0E0,0E0,0E0,2.2281494E0,6.624292E0,2.188565E1,0E0,2.3379883E1,0E0,4.8476562E0,0E0,0E0,0E0,4.3461647E0,1.797771E1,4.9786987E0,6.4373856E0,4.5136137E0,4.9591293E0,3.767212E0,0E0,3.8258858E0,1.226758E0,0E0,8.657112E-1,0E0,0E0,3.2637563E0,7.892729E0,0E0,2.545372E0,0E0,0E0,0E0,1.7463756E-1,9.191208E-1,8.540249E-2,1.9468145E0,1.4535035E-1,2.7198315E-1,4.139447E-2,5.63208E0,0E0,0E0,2.154518E0,2.2120485E0,0E0,0E0,0E0,0E0,0E0,7.114091E-1,9.241951E0,6.703003E0,0E0,0E0,0E0,1.0698975E1,0E0,0E0,0E0,0E0,0E0,0E0,0E0,0E0,0E0,0E0,0E0,0E0,0E0,0E0,0E0,0E0,0E0,0E0,0E0,0E0,0E0,0E0,0E0,0E0,0E0,0E0,0E0,0E0,0E0,0E0,0E0,0E0,0E0,0E0,0E0,0E0,0E0,0E0,0E0,0E0,0E0,0E0,0E0,0E0,0E0,0E0,0E0,0E0,0E0,0E0,0E0,0E0,0E0,0E0],"parents":[2147483647,0,0,1,1,2,2,3,3,4,4,5,5,6,6,7,7,8,8,9,9,10,10,11,11,12,12,13,13,14,14,15,15,16,16,17,17,18,18,19,19,20,20,21,21,22,22,23,23,24,24,25,25,26,26,27,27,28,28,29,29,32,32,34,34,36,36,37,37,38,38,40,40,41,41,42,42,43,43,44,44,45,45,46,46,48,48,49,49,50,50,51,51,52,52,53,53,54,54,55,55,59,59,60,60,69,69,73,73,74,74,75,75,76,76,77,77,78,78,79,79,81,81,83,83,84,84,86,86,87,87,88,88,89,89,91,91,92,92,93,93,94,94,98,98,99,99,100,100,102,102,104,104,108,108,109,109,110,110,111,111,112,112,113,113,114,114,116,116,117,117,119,119,122,122,123,123,125,125,129,129,130,130,131,131,132,132,133,133,134,134,135,135,136,136,139,139,140,140,146,146,147,147,148,148,152,152],"right_children":[2,4,6,8,10,12,14,16,18,20,22,24,26,28,30,32,34,36,38,40,42,44,46,48,50,52,54,56,58,60,-1,-1,62,-1,64,-1,66,68,70,-1,72,74,76,78,80,82,84,-1,86,88,90,92,94,96,98,100,-1,-1,-1,102,104,-1,-1,-1,-1,-1,-1,-1,-1,106,-1,-1,-1,108,110,112,114,116,118,120,-1,122,-1,124,126,-1,128,130,132,134,-1,136,138,140,142,-1,-1,-1,144,146,148,-1,150,-1,152,-1,-1,-1,154,156,158,160,162,164,166,-1,168,170,-1,172,-1,-1,174,176,-1,178,-1,-1,-1,180,182,184,186,188,190,192,194,-1,-1,196,198,-1,-1,-1,-1,-1,200,202,204,-1,-1,-1,206,-1,-1,-1,-1,-1,-1,-1,-1,-1,-1,-1,-1,-1,-1,-1,-1,-1,-1,-1,-1,-1,-1,-1,-1,-1,-1,-1,-1,-1,-1,-1,-1,-1,-1,-1,-1,-1,-1,-1,-1,-1,-1,-1,-1,-1,-1,-1,-1,-1,-1,-1,-1,-1,-1],"split_conditions":[1.8428572E1,-1.875E-1,8.3333336E-2,2.2E1,1.3E1,2.3E1,4E0,-2.9411766E-1,-3.888889E-1,2.631579E-1,8.3333336E-2,-2.3529412E-1,-2E-1,5.882353E-1,2.3E1,1.8E1,1.5E1,-4.7619048E-1,1.6E1,1E1,1E1,2E1,4E0,1.9E1,2E1,-4.2857143E-1,2.5E1,2E1,1.9928572E1,4.6153846E-1,1.4508485E0,-8.084284E-1,-5.4545456E-1,-6.355106E-1,1.9E1,-4.0992185E-1,1.1739018E1,1.6285715E1,4.350066E0,-6.3701785E-1,1.0526316E-1,8.666667E-1,6.4705884E-1,1.7E1,2.5E1,4E-1,3.1034482E-1,-4.9732146E-1,-3.3333334E-1,1.8E1,-9.52381E-2,2.1788889E1,2.8E1,2.2714285E1,2E0,1.4E1,6.588661E-1,3.4643826E-1,8.3175814E-1,1.6E1,1.3E1,-7.3060626E-1,-4.1461888E-1,-3.4140942E-1,-1.2519518E-1,-2.0722711E-1,5.930481E-2,-8.838337E-2,1.3564873E-2,1.1E1,1.451619E-1,-4.4044408E-1,-2.3835874E-1,9E0,1.2571428E1,4.117647E-1,8.333333E-1,-6.666667E-2,-5.7142857E-2,5.7727094E0,5.642463E-1,1.2E1,3.275789E-1,1.8E1,2.9107335E0,-3.1614682E-1,2.2E1,1.6E1,-1.5625E-1,-1.875E-1,2.615621E-1,1.7830166E1,6E0,-3.1578946E-1,3.2E1,3.856457E-1,8.22834E-2,2.226303E-1,6E0,2.6E1,2.1428572E-1,1.280211E-1,1.1764706E-1,4.1470477E-1,1.1655112E1,1.2673092E-2,-3.0108834E-2,-4.713254E-1,5.714286E-1,1.4285715E0,2.1E1,1.2E1,1.1E1,1.1E1,4.203609E0,-3.2424822E-1,1.6E1,-3.665111E0,9.7448036E-2,4.601123E0,1.0146141E-2,1.17686525E-1,1.5789473E-1,4.3120074E0,4.688088E-1,-5.8421916E-1,7.5082725E-1,-1.72982E-1,-6.53561E-2,3E0,2.2E1,3.5E1,2.0714285E1,1E0,1.8036919E1,1.8E1,1.3E1,8.413029E-3,7.749526E-2,1.3E1,5.846479E0,3.5317236E-1,2.9711628E-2,8.03101E-1,3.8557172E-1,1.6674083E-1,1.9E1,1.7E1,2.2355556E1,1.7999674E-1,6.6504127E-1,5.350222E-1,2.9E1,-2.379469E-1,-7.9360925E-2,-2.2672038E-1,4.0567208E-2,3.4953672E-2,1.7473756E-1,-1.9891404E-1,-3.566105E-2,-6.1793663E-2,6.358311E-2,5.486107E-2,2.3686169E-1,9.979563E-2,4.5879933E-1,-1.7363535E-1,-5.7567596E-2,-1.7129026E-1,-6.672817E-2,7.3486075E-2,2.1402037E-1,-6.7410335E-2,2.9719952E-2,-7.553673E-3,1.8388888E-1,4.6299958E-1,1.912117E-1,5.21451E-2,4.7836304E-4,-2.0600803E-1,-4.3785192E-2,-1.4062172E-1,-3.7288573E-2,6.5781185E-3,8.8335544E-2,-3.1178666E-2,4.950142E-3,3.6743928E-2,9.6531264E-2,-8.991241E-3,1.1401939E-2,2.2464847E-2,-2.0515418E-1,1.5628958E-2,-8.3734006E-2,1.7031804E-1,6.145347E-2,-5.9915353E-2,1.822141E-2,1.0738999E-1,2.82803E-1,3.9086118E-1,5.6446742E-2,1.153019E0,3.005621E-1],"split_indices":[9,22,22,15,15,15,0,22,22,22,22,22,22,22,15,15,15,22,9,15,15,15,0,15,15,22,15,15,10,22,0,0,22,0,15,0,6,10,14,0,22,22,22,15,15,22,22,0,22,15,22,12,15,9,0,15,0,0,0,15,15,0,0,0,0,0,0,0,0,1,0,0,0,15,9,22,22,22,22,14,0,17,0,15,19,0,15,17,22,22,0,19,0,22,1,0,0,0,0,17,22,0,22,0,7,0,0,0,22,22,18,15,15,15,14,0,15,20,0,14,0,0,22,14,0,19,0,0,0,0,9,1,9,0,21,1,17,0,0,24,14,0,0,0,0,0,1,15,12,0,0,0,17,0,0,0,0,0,0,0,0,0,0,0,0,0,0,0,0,0,0,0,0,0,0,0,0,0,0,0,0,0,0,0,0,0,0,0,0,0,0,0,0,0,0,0,0,0,0,0,0,0,0,0,0,0,0],"split_type":[0,0,0,0,0,0,0,0,0,0,0,0,0,0,0,0,0,0,0,0,0,0,0,0,0,0,0,0,0,0,0,0,0,0,0,0,0,0,0,0,0,0,0,0,0,0,0,0,0,0,0,0,0,0,0,0,0,0,0,0,0,0,0,0,0,0,0,0,0,0,0,0,0,0,0,0,0,0,0,0,0,0,0,0,0,0,0,0,0,0,0,0,0,0,0,0,0,0,0,0,0,0,0,0,0,0,0,0,0,0,0,0,0,0,0,0,0,0,0,0,0,0,0,0,0,0,0,0,0,0,0,0,0,0,0,0,0,0,0,0,0,0,0,0,0,0,0,0,0,0,0,0,0,0,0,0,0,0,0,0,0,0,0,0,0,0,0,0,0,0,0,0,0,0,0,0,0,0,0,0,0,0,0,0,0,0,0,0,0,0,0,0,0,0,0,0,0,0,0,0,0,0,0,0,0,0,0],"sum_hessian":[6.9E2,4.16E2,2.74E2,1.37E2,2.79E2,1.5E2,1.24E2,1.13E2,2.4E1,1.55E2,1.24E2,7.5E1,7.5E1,6.6E1,5.8E1,6.9E1,4.4E1,1.3E1,1.1E1,6.2E1,9.3E1,6.9E1,5.5E1,2.4E1,5.1E1,4.3E1,3.2E1,5E1,1.6E1,4.4E1,1.4E1,5E1,1.9E1,2E1,2.4E1,7E0,6E0,5E0,6E0,2.6E1,3.6E1,5.4E1,3.9E1,5.4E1,1.5E1,1.9E1,3.6E1,7E0,1.7E1,3.1E1,2E1,1.6E1,2.7E1,7E0,2.5E1,4.1E1,9E0,4E0,1.2E1,2.2E1,2.2E1,8E0,1.1E1,2.1E1,3E0,5E0,1E0,4E0,1E0,2E0,4E0,2.9E1,7E0,3E1,2.4E1,2.5E1,1.4E1,4.1E1,1.3E1,9E0,6E0,1.4E1,5E0,2E1,1.6E1,5E0,1.2E1,1.5E1,1.6E1,1.1E1,9E0,1.3E1,3E0,1.8E1,9E0,6E0,1E0,1E0,2.4E1,7E0,3.4E1,2E0,2E1,2E0,2E1,1E0,1E0,1.9E1,1.1E1,1.2E1,1.2E1,1.2E1,1.3E1,8E0,6E0,2E1,2.1E1,8E0,5E0,8E0,1E0,2E0,1.2E1,9E0,1.1E1,6E0,1E1,7E0,5E0,2E0,1.3E1,5E0,1.1E1,3E0,8E0,2E0,1.1E1,1E0,2E0,8E0,1E1,8E0,1E0,2.1E1,3E0,4E0,3E0,1.5E1,1.9E1,2E0,1.8E1,3E0,1.7E1,7E0,4E0,9E0,3E0,9E0,3E0,8E0,4E0,3E0,1E1,3E0,5E0,1E0,5E0,1.6E1,5E0,2E0,6E0,2E0,6E0,6E0,6E0,3E0,6E0,3E0,3E0,1E0,1E0,1.2E1,1E0,4E0,1E0,6E0,5E0,1E0,2E0,3E0,5E0,1E0,1E0,1E0,1E1,3E0,5E0,4E0,6E0,1E0,2E0,9E0,6E0,1.8E1,1E0,1.6E1,1E0],"tree_param":{"num_deleted":"0","num_feature":"25","num_nodes":"207","size_leaf_vector":"1"}},{"base_weights":[-3.4665607E-2,-2.7626328E0,2.8978026E0,-3.579007E0,-5.878753E-1,9.0358925E-1,4.619118E0,-4.1035166E0,-1.7821572E0,-8.826019E-2,-4.758451E0,3.3759627E-1,3.600213E0,3.5870728E0,7.141288E0,-4.345529E0,-2.5146582E0,-3.7226372E0,-9.232399E-1,-5.850725E-1,3.014052E0,-1.931193E-1,-5.1721535E0,-6.781368E-1,1.0885569E0,4.163176E0,-8.183584E-1,7.260886E0,3.0629714E0,4.892973E0,1.0606359E1,-4.4279466E0,-1.2174277E0,-3.6938652E-1,-3.924318E0,-4.8933125E0,-1.5012941E0,1.3063446E0,-1.9722892E0,1.304952E0,-1.5022651E0,3.8167455E0,-9.338411E-2,-5.477749E-1,-1.3636957E-1,3.2242312E0,-1.0269091E0,3.6859045E0,6.5238947E-1,2.7066414E0,5.515535E-1,-1.5227747E-1,-7.596143E-2,7.8744106E0,-9.709902E-2,2.161478E0,4.550483E0,1.4923549E0,5.881919E0,5.0085835E0,1.2138378E1,-5.357298E0,-4.0025096E0,-3.662053E-1,2.4478817E0,-1.7760744E0,3.23968E-1,-4.705854E-1,-2.3591661E0,-6.996117E-2,-5.210957E0,-7.7486993E-3,-1.6936256E0,2.9864347E-1,3.2620182E0,-3.1000617E0,-3.8141823E-1,3.095708E0,-8.616857E-1,-1.719311E0,2.8329685E-1,1.5505142E0,4.472768E0,3.7685725E-1,5.234337E-2,1.1254478E0,-1.5416595E0,4.7996187E-1,4.828138E0,-4.17626E-2,1.708019E0,4.0160365E0,8.235269E-1,1.27363205E-2,-2.4130536E-2,3.9784088E0,9.424571E0,4.135814E0,1.5225029E0,5.2937703E0,-1.0392977E0,2.2307065E-1,4.5553246E-1,2.2692246E0,6.435626E0,6.353114E-1,1.5463486E-1,1.2635397E1,2.5900602E-1,-5.747902E0,-2.025145E0,4.7288418E-2,-4.1033087E0,3.457819E-1,2.1400357E-2,-4.1680336E-2,-3.5021324E0,-2.6844718E0,-4.1012764E-3,-1.0358486E-1,-5.524883E-1,-2.3251725E-2,-1.8983908E-1,1.4964505E-1,-5.995963E-1,3.7158623E-1,7.23321E-2,-1.0962024E0,-4.9821205E0,8.544159E-1,-2.1715996E0,-2.5506344E-1,3.6812062E0,-1.3487654E0,2.4916354E-1,-3.067956E-1,-2.792013E0,6.4897284E-2,2.1275692E-1,4.7584158E-1,1.2366171E-1,-6.821295E-1,2.2557962E0,-2.3626344E0,3.8633198E-1,1.3633823E-1,-2.689724E-2,5.3742623E-1,5.026331E-2,2.0552893E0,-5.1989555E-1,2.3441615E0,1.7527157E-1,5.290184E-2,4.4386077E0,2.0395799E0,-5.9840775E-1,4.566826E-1,5.1816177E-2,4.4139582E-1,1.0941411E0,-1.9399579E-1,4.689165E0,-4.840289E-2,2.1594982E0,6.087916E0,1.9701838E0,5.2083844E-1,-1.9495754E-1,7.0137456E-2,-2.6391793E-2,2.7965689E0,7.992364E-3,2.5961814E0,6.905213E0,5.390336E-1,1.3393712E0,-2.7686256E-1,-6.1255777E-1,-9.3453445E-2,-3.1677812E-1,3.5904256E-1,-2.3305658E-1,-3.5394374E-1,-4.8332173E-1,-6.023183E-2,7.197304E-2,-1.20151654E-1,-4.6353707E-1,-2.986153E-1,-4.37192E-2,-1.0245247E-1,9.749871E-2,4.136019E-2,-1.8023473E-1,-5.517996E-1,-3.4755804E-2,-4.989853E-2,1.3123856E-1,2.1822484E-2,-3.4210682E-1,2.0794256E-1,5.470343E-1,-2.3876749E-1,-5.3085137E-2,1.0018941E-1,-1.3131379E-1,6.870632E-3,-3.2347664E-1,-1.8850898E-2,-9.483735E-2,8.586515E-2,2.642924E-1,-2.861789E-1,1.722105E-1,-2.615401E-2,1.2937514E-1,-7.5612195E-2,3.1184468E-1,1.9534145E-1,-8.128126E-2,1.094564E-1,3.610985E-1,1.273769E-1,-1.5162925E-1,1.3216268E-1,4.7378334E-1,5.5079844E-2,2.3522408E-1,-7.7478476E-2,-3.4638406E-3,-4.1873075E-2,1.2773705E-2,5.349672E-1,4.374504E-3,5.370491E-1,-1.0614204E-1,3.9493188E-1,1.2209814E-1,3.838775E-1,8.544818E-1,2.9691791E-2,3.987537E-1,6.7293935E-2,1.0831833E-2,3.608179E-1,1.3233058E-1,3.1451848E-1,4.7458556E-2,7.304437E-1,2.3412049E-1],"categories":[],"categories_nodes":[],"categories_segments":[],"categories_sizes":[],"default_left":[0,0,0,0,0,0,0,0,0,0,0,0,0,0,0,0,0,0,0,0,0,0,0,0,0,0,0,0,0,0,0,0,0,0,0,0,0,0,0,0,0,0,0,0,0,0,0,0,0,0,0,0,0,0,0,0,0,0,0,0,0,0,0,0,0,0,0,0,0,0,0,0,0,0,0,0,0,0,0,0,0,0,0,0,0,0,0,0,0,0,0,0,0,0,0,0,0,0,0,0,0,0,0,0,0,0,0,0,0,0,0,0,0,0,0,0,0,0,0,0,0,0,0,0,0,0,0,0,0,0,0,0,0,0,0,0,0,0,0,0,0,0,0,0,0,0,0,0,0,0,0,0,0,0,0,0,0,0,0,0,0,0,0,0,0,0,0,0,0,0,0,0,0,0,0,0,0,0,0,0,0,0,0,0,0,0,0,0,0,0,0,0,0,0,0,0,0,0,0,0,0,0,0,0,0,0,0,0,0,0,0,0,0,0,0,0,0,0,0,0,0,0,0,0,0,0,0,0,0,0,0,0,0,0,0,0,0,0,0,0,0,0,0,0,0,0,0,0,0,0,0],"id":3,"left_children":[1,3,5,7,9,11,13,15,17,19,21,23,25,27,29,31,33,35,37,39,41,-1,43,45,47,49,51,53,55,57,59,61,63,65,67,69,71,73,75,77,79,81,-1,-1,-1,83,85,87,89,91,-1,-1,93,95,-1,97,99,101,103,105,107,109,111,-1,113,115,-1,-1,117,-1,119,-1,121,123,125,127,129,131,133,135,-1,137,139,-1,-1,141,143,145,147,149,151,153,155,-1,-1,157,159,161,163,165,167,-1,169,171,173,-1,-1,175,-1,177,179,181,183,-1,-1,185,187,189,-1,-1,-1,-1,-1,-1,191,-1,-1,193,195,197,199,-1,201,203,-1,205,207,-1,-1,-1,-1,209,211,213,215,-1,-1,-1,-1,217,219,221,223,-1,225,227,229,-1,-1,-1,-1,231,233,235,237,239,241,243,-1,-1,-1,245,-1,247,249,-1,-1,-1,-1,-1,-1,-1,-1,-1,-1,-1,-1,-1,-1,-1,-1,-1,-1,-1,-1,-1,-1,-1,-1,-1,-1,-1,-1,-1,-1,-1,-1,-1,-1,-1,-1,-1,-1,-1,-1,-1,-1,-1,-1,-1,-1,-1,-1,-1,-1,-1,-1,-1,-1,-1,-1,-1,-1,-1,-1,-1,-1,-1,-1,-1,-1,-1,-1,-1,-1,-1,-1,-1,-1,-1,-1],"loss_changes":[5.759773E3,6.601262E2,1.1869629E3,2.4809497E2,2.1419936E2,2.4604031E2,4.5854053E2,6.943799E1,1.0156593E2,1.4510127E2,2.877655E0,1.0371288E2,7.305673E1,2.3577063E2,3.610039E2,4.1014893E1,8.927351E1,4.2062683E1,1.07828964E2,1.4237523E2,4.476055E1,0E0,3.0046387E0,8.225119E1,8.595988E1,3.431537E1,1.9761543E0,8.845325E1,1.4974109E2,1.0556494E2,1.1072168E2,4.7749268E1,6.2726116E1,7.17527E1,1.0916138E1,1.23396E1,2.0595093E0,2.858684E1,5.443593E1,1.07425354E2,5.662271E1,9.418594E0,0E0,0E0,0E0,5.378174E0,6.156309E1,3.7963943E1,4.989951E1,3.1213066E1,0E0,0E0,1.315889E-1,5.309662E1,0E0,8.958115E1,1.8831348E2,5.8736954E0,3.7405823E1,1.8106369E1,3.8458984E1,5.6040283E1,5.0812744E1,0E0,6.028246E0,2.9790676E1,0E0,0E0,5.9227753E0,0E0,8.694519E0,0E0,1.6528778E0,1.2732363E1,3.073101E0,6.2423447E1,3.2828594E1,5.8978256E1,2.459398E1,7.944948E1,0E0,7.0022106E-1,1.5108643E0,0E0,0E0,2.4013855E1,7.055741E1,3.0132074E0,1.6196823E1,4.3180656E1,2.5915375E1,9.440002E0,1.3324535E1,0E0,0E0,9.850052E0,2.770813E1,4.403595E1,5.9143448E1,9.094275E1,9.536358E0,0E0,1.069461E0,5.5490665E0,2.1737854E1,0E0,0E0,4.7199707E0,0E0,3.4799805E1,5.7627964E0,4.2067974E1,3.2693604E1,0E0,0E0,2.9947612E0,7.466259E0,3.440216E0,0E0,0E0,0E0,0E0,0E0,0E0,5.682494E0,0E0,0E0,1.140686E1,2.0434113E1,6.233211E0,1.8662626E1,0E0,2.8746094E1,8.929361E0,0E0,3.292338E1,3.822E1,0E0,0E0,0E0,0E0,4.783404E-1,1.5167618E0,6.8134674E1,8.568851E0,0E0,0E0,0E0,0E0,2.6269703E1,2.694437E1,2.6124924E1,1.8655016E1,0E0,2.6712036E-1,5.6632614E-1,3.7090647E-1,0E0,0E0,0E0,0E0,2.7040124E-1,4.8859283E1,1.0451016E2,6.572858E1,1.3850183E2,2.9196148E1,1.1534232E-1,0E0,0E0,0E0,8.136749E-3,0E0,3.1663933E0,1.7518005E1,0E0,0E0,0E0,0E0,0E0,0E0,0E0,0E0,0E0,0E0,0E0,0E0,0E0,0E0,0E0,0E0,0E0,0E0,0E0,0E0,0E0,0E0,0E0,0E0,0E0,0E0,0E0,0E0,0E0,0E0,0E0,0E0,0E0,0E0,0E0,0E0,0E0,0E0,0E0,0E0,0E0,0E0,0E0,0E0,0E0,0E0,0E0,0E0,0E0,0E0,0E0,0E0,0E0,0E0,0E0,0E0,0E0,0E0,0E0,0E0,0E0,0E0,0E0,0E0,0E0,0E0,0E0,0E0,0E0,0E0,0E0,0E0,0E0,0E0,0E0,0E0],"parents":[2147483647,0,0,1,1,2,2,3,3,4,4,5,5,6,6,7,7,8,8,9,9,10,10,11,11,12,12,13,13,14,14,15,15,16,16,17,17,18,18,19,19,20,20,22,22,23,23,24,24,25,25,26,26,27,27,28,28,29,29,30,30,31,31,32,32,33,33,34,34,35,35,36,36,37,37,38,38,39,39,40,40,41,41,45,45,46,46,47,47,48,48,49,49,52,52,53,53,55,55,56,56,57,57,58,58,59,59,60,60,61,61,62,62,64,64,65,65,68,68,70,70,72,72,73,73,74,74,75,75,76,76,77,77,78,78,79,79,81,81,82,82,85,85,86,86,87,87,88,88,89,89,90,90,91,91,92,92,95,95,96,96,97,97,98,98,99,99,100,100,102,102,103,103,104,104,107,107,109,109,110,110,111,111,112,112,115,115,116,116,117,117,124,124,127,127,128,128,129,129,130,130,132,132,133,133,135,135,136,136,141,141,142,142,143,143,144,144,149,149,150,150,151,151,152,152,154,154,155,155,156,156,161,161,162,162,163,163,164,164,165,165,166,166,167,167,171,171,173,173,174,174],"right_children":[2,4,6,8,10,12,14,16,18,20,22,24,26,28,30,32,34,36,38,40,42,-1,44,46,48,50,52,54,56,58,60,62,64,66,68,70,72,74,76,78,80,82,-1,-1,-1,84,86,88,90,92,-1,-1,94,96,-1,98,100,102,104,106,108,110,112,-1,114,116,-1,-1,118,-1,120,-1,122,124,126,128,130,132,134,136,-1,138,140,-1,-1,142,144,146,148,150,152,154,156,-1,-1,158,160,162,164,166,168,-1,170,172,174,-1,-1,176,-1,178,180,182,184,-1,-1,186,188,190,-1,-1,-1,-1,-1,-1,192,-1,-1,194,196,198,200,-1,202,204,-1,206,208,-1,-1,-1,-1,210,212,214,216,-1,-1,-1,-1,218,220,222,224,-1,226,228,230,-1,-1,-1,-1,232,234,236,238,240,242,244,-1,-1,-1,246,-1,248,250,-1,-1,-1,-1,-1,-1,-1,-1,-1,-1,-1,-1,-1,-1,-1,-1,-1,-1,-1,-1,-1,-1,-1,-1,-1,-1,-1,-1,-1,-1,-1,-1,-1,-1,-1,-1,-1,-1,-1,-1,-1,-1,-1,-1,-1,-1,-1,-1,-1,-1,-1,-1,-1,-1,-1,-1,-1,-1,-1,-1,-1,-1,-1,-1,-1,-1,-1,-1,-1,-1,-1,-1,-1,-1,-1,-1],"split_conditions":[1.6857143E1,1.4571428E1,1.9E1,1.6E1,2.2E1,2.2943115E1,2.8E1,1.6120123E0,-2.5694401E0,2.2E1,4.6533694E0,1.2E1,2.7959194E1,1.8178572E1,6.9006557E0,3.63E2,1.2E1,6E0,3.8696307E-1,1.3E1,9.038533E0,-1.931193E-1,1.1342327E1,4.5573273E0,1.6E1,2.3300144E1,1.86E2,3.1E1,2.4E1,2E1,1.9E1,1.1E1,9E0,4.956958E0,1.3285714E1,-1.00633955E1,1.3E1,4.9062643E0,2.3569102E0,5.264612E0,2.5E1,4.5178056E0,-9.338411E-2,-5.477749E-1,-1.3636957E-1,2.95E2,1.4E1,4.956958E0,2.0857143E1,2.4258924E1,5.515535E-1,-1.5227747E-1,2.8E1,9.062981E0,-9.709902E-2,4.9330683E0,3.6E1,5.7569833E0,1.6470907E1,7.215673E0,9.655988E0,-5.658454E-1,-5.861488E0,-3.662053E-1,-7.46226E0,1.1838235E1,3.23968E-1,-4.705854E-1,1.8E1,-6.996117E-2,-4.9867005E0,-7.7486993E-3,9.571428E0,1.2E1,4.9E1,-1.3977805E-1,1.4E1,-5.223216E0,1.3863918E1,4.5092497E0,2.8329685E-1,1.3E1,4.6723804E0,3.7685725E-1,5.234337E-2,1.5857142E1,2.3E1,5E0,2.1399271E1,1.5E1,2.2464285E1,1.6118292E1,2.3399565E1,1.27363205E-2,-2.4130536E-2,1.7E1,5.094348E0,1.3E1,1.9428572E1,2.4960545E1,6.402266E0,2.2307065E-1,2.73E2,9E0,1.9857143E1,6.353114E-1,1.5463486E-1,1.173161E1,2.5900602E-1,-7.0764832E0,-2.7986345E0,2E0,4.5137153E0,3.457819E-1,2.1400357E-2,6.2E1,6E0,1.525E1,-4.1012764E-3,-1.0358486E-1,-5.524883E-1,-2.3251725E-2,-1.8983908E-1,1.4964505E-1,-2.0914855E0,3.7158623E-1,7.23321E-2,4.9E1,4.485636E0,1.3E1,4.269107E0,-2.5506344E-1,5.618846E0,1.4E1,2.4916354E-1,1.4E1,-5.658454E-1,6.4897284E-2,2.1275692E-1,4.7584158E-1,1.2366171E-1,6.559803E0,1.1E1,2.17E1,1.7E1,1.3633823E-1,-2.689724E-2,5.3742623E-1,5.026331E-2,4.5178056E0,4.164871E0,2E1,5.6273146E0,5.290184E-2,2.1E1,2.5E1,3E1,4.566826E-1,5.1816177E-2,4.4139582E-1,1.0941411E0,2E1,2.3756319E1,1.8071428E1,2.1142857E1,2.1714285E1,2.2943115E1,2.5E1,-1.9495754E-1,7.0137456E-2,-2.6391793E-2,1.9E1,7.992364E-3,2.3E1,2.3071428E1,5.390336E-1,1.3393712E0,-2.7686256E-1,-6.1255777E-1,-9.3453445E-2,-3.1677812E-1,3.5904256E-1,-2.3305658E-1,-3.5394374E-1,-4.8332173E-1,-6.023183E-2,7.197304E-2,-1.20151654E-1,-4.6353707E-1,-2.986153E-1,-4.37192E-2,-1.0245247E-1,9.749871E-2,4.136019E-2,-1.8023473E-1,-5.517996E-1,-3.4755804E-2,-4.989853E-2,1.3123856E-1,2.1822484E-2,-3.4210682E-1,2.0794256E-1,5.470343E-1,-2.3876749E-1,-5.3085137E-2,1.0018941E-1,-1.3131379E-1,6.870632E-3,-3.2347664E-1,-1.8850898E-2,-9.483735E-2,8.586515E-2,2.642924E-1,-2.861789E-1,1.722105E-1,-2.615401E-2,1.2937514E-1,-7.5612195E-2,3.1184468E-1,1.9534145E-1,-8.128126E-2,1.094564E-1,3.610985E-1,1.273769E-1,-1.5162925E-1,1.3216268E-1,4.7378334E-1,5.5079844E-2,2.3522408E-1,-7.7478476E-2,-3.4638406E-3,-4.1873075E-2,1.2773705E-2,5.349672E-1,4.374504E-3,5.370491E-1,-1.0614204E-1,3.9493188E-1,1.2209814E-1,3.838775E-1,8.544818E-1,2.9691791E-2,3.987537E-1,6.7293935E-2,1.0831833E-2,3.608179E-1,1.3233058E-1,3.1451848E-1,4.7458556E-2,7.304437E-1,2.3412049E-1],"split_indices":[9,9,18,18,17,19,18,19,7,18,14,24,6,11,13,3,1,24,6,17,6,0,6,14,17,6,3,15,15,10,15,9,18,13,9,21,3,14,19,8,15,6,0,0,0,3,15,14,10,19,0,0,1,21,0,14,15,14,20,14,13,6,7,0,6,12,0,0,15,0,7,0,9,15,1,8,9,6,20,13,0,1,20,0,0,10,15,2,6,15,11,6,8,0,0,1,13,24,9,20,14,0,3,2,9,0,0,21,0,6,7,1,14,0,0,3,24,11,0,0,0,0,0,0,6,0,0,1,6,1,14,0,13,18,0,15,6,0,0,0,0,6,15,12,18,0,0,0,0,6,14,15,13,0,1,1,1,0,0,0,0,1,6,10,9,9,6,1,0,0,0,1,0,1,10,0,0,0,0,0,0,0,0,0,0,0,0,0,0,0,0,0,0,0,0,0,0,0,0,0,0,0,0,0,0,0,0,0,0,0,0,0,0,0,0,0,0,0,0,0,0,0,0,0,0,0,0,0,0,0,0,0,0,0,0,0,0,0,0,0,0,0,0,0,0,0,0,0,0,0,0],"split_type":[0,0,0,0,0,0,0,0,0,0,0,0,0,0,0,0,0,0,0,0,0,0,0,0,0,0,0,0,0,0,0,0,0,0,0,0,0,0,0,0,0,0,0,0,0,0,0,0,0,0,0,0,0,0,0,0,0,0,0,0,0,0,0,0,0,0,0,0,0,0,0,0,0,0,0,0,0,0,0,0,0,0,0,0,0,0,0,0,0,0,0,0,0,0,0,0,0,0,0,0,0,0,0,0,0,0,0,0,0,0,0,0,0,0,0,0,0,0,0,0,0,0,0,0,0,0,0,0,0,0,0,0,0,0,0,0,0,0,0,0,0,0,0,0,0,0,0,0,0,0,0,0,0,0,0,0,0,0,0,0,0,0,0,0,0,0,0,0,0,0,0,0,0,0,0,0,0,0,0,0,0,0,0,0,0,0,0,0,0,0,0,0,0,0,0,0,0,0,0,0,0,0,0,0,0,0,0,0,0,0,0,0,0,0,0,0,0,0,0,0,0,0,0,0,0,0,0,0,0,0,0,0,0,0,0,0,0,0,0,0,0,0,0,0,0,0,0,0,0,0,0],"sum_hessian":[7.18E2,3.72E2,3.46E2,2.7E2,1.02E2,1.61E2,1.85E2,2.08E2,6.2E1,9.2E1,1E1,1.34E2,2.7E1,1.33E2,5.2E1,1.79E2,2.9E1,1.8E1,4.4E1,8E1,1.2E1,2E0,8E0,5.7E1,7.7E1,2.4E1,3E0,1.5E1,1.18E2,3.3E1,1.9E1,1.74E2,5E0,1.2E1,1.7E1,1.1E1,7E0,1.4E1,3E1,2.6E1,5.4E1,1E1,2E0,7E0,1E0,4E0,5.3E1,1E1,6.7E1,1.3E1,1.1E1,1E0,2E0,1.4E1,1E0,7.5E1,4.3E1,8E0,2.5E1,5E0,1.4E1,5.1E1,1.23E2,3E0,2E0,9E0,3E0,1E1,7E0,1E0,1E1,1E0,6E0,1E1,4E0,1.7E1,1.3E1,1.4E1,1.2E1,5.2E1,2E0,3E0,7E0,3E0,1E0,1E1,4.3E1,3E0,7E0,4.1E1,2.6E1,7E0,6E0,1E0,1E0,5E0,9E0,1.7E1,5.8E1,3.8E1,5E0,4E0,4E0,4E0,2.1E1,3E0,2E0,1.3E1,1E0,4.5E1,6E0,3E0,1.2E2,1E0,1E0,5E0,4E0,6E0,1E0,1E0,9E0,1E0,5E0,4E0,6E0,3E0,1E0,9E0,8E0,8E0,5E0,1E0,1.3E1,1.1E1,1E0,2.3E1,2.9E1,2E0,1E0,6E0,1E0,4E0,6E0,3E1,1.3E1,1E0,2E0,6E0,1E0,7E0,3.4E1,1.8E1,8E0,1E0,6E0,3E0,3E0,4E0,1E0,3E0,6E0,2E0,1.5E1,1.7E1,4.1E1,3E1,8E0,2E0,3E0,3E0,1E0,3E0,1E0,3E0,1.8E1,2E0,1.1E1,6E0,3.9E1,4E0,2E0,1E0,2E0,7.1E1,4.9E1,3E0,2E0,2E0,2E0,5E0,1E0,5E0,1E0,3E0,6E0,7E0,1E0,2E0,6E0,2E0,3E0,8E0,5E0,4E0,7E0,1E1,1.3E1,4E0,2.5E1,2E0,2E0,2E0,4E0,2.7E1,3E0,8E0,5E0,2E0,5E0,3E0,3.1E1,1E1,8E0,5E0,3E0,1E0,5E0,1E0,2E0,2E0,1E0,1E0,1E0,1.3E1,2E0,2E0,1.5E1,1.3E1,2.8E1,1.7E1,1.3E1,5E0,3E0,1E0,1E0,1E0,2E0,2E0,1E0,1.6E1,2E0],"tree_param":{"num_deleted":"0","num_feature":"25","num_nodes":"251","size_leaf_vector":"1"}},{"base_weights":[-1.0626099E-1,-2.3201287E0,2.9513464E0,-4.643524E0,-1.1195757E0,7.435808E-1,5.808733E0,-5.3471503E0,-1.4068601E0,-2.7283287E0,5.707841E-1,-1.3235148E0,2.0738232E0,4.1156597E0,9.710337E0,-6.548659E0,-4.0948815E0,-2.6944005E0,3.198037E-1,-4.470277E0,-8.156632E-1,-1.9087104E-1,4.8455963E0,-3.6435711E0,-7.4047315E-1,-9.4726525E-2,4.515415E0,3.2751129E0,7.8510275E0,6.5582795E0,1.1949704E0,-1.9557619E-1,-6.682548E0,-5.572961E-1,-2.8062465E0,-2.9692109E0,5.764723E-2,-4.4625662E-2,1.4279671E-1,-6.1444396E-1,-3.96023E0,-2.3048792E0,4.541033E-1,-1.6299667E0,1.6549889E0,-8.067136E-1,5.8905168E0,-4.658372E-1,-2.1082604E-1,-1.2364409E0,3.713634E-2,-1.4091635E0,5.303943E-1,3.4382732E0,6.8857403E0,1.6436098E0,4.0906224E0,4.2925548E-2,8.317195E-1,4.7446066E-1,8.232295E-1,-6.8761677E-1,-3.987562E-1,-3.0017278E0,-1.426293E-1,-3.7122712E-1,-1.6958259E-1,-3.6608914E-1,5.2909184E-1,-4.5586964E-1,-2.987907E0,-3.4181004E0,7.9611707E-1,-8.1025606E-1,1.2589419E0,-1.8769172E0,1.0700403E0,7.812033E-1,2.7315705E0,-5.250931E-3,-1.0406119E-1,2.3282123E0,6.807517E0,3.9424643E-1,-1.5417153E0,-9.8244727E-1,8.185748E-1,-2.0938473E0,-6.520319E-1,-6.808629E-1,1.1874826E0,1.7930532E0,4.024639E0,5.049501E-1,9.1810715E-1,-2.2574446E-1,2.4425876E0,2.4119256E0,5.9564004E0,-8.765149E-2,-3.0479762E-1,1.2320963E-1,-5.864506E-2,6.0184985E-2,1.5540886E-2,-3.2428553E0,-8.387141E-1,-4.652287E-1,-3.6771724E0,1.799777E-1,-3.6676636E-1,-1.5114928E0,-7.737279E-3,7.772491E-1,3.3526704E-1,-2.8337878E-1,-1.3877109E0,-1.3175202E-2,1.3367493E0,-1.2003498E-1,2.5055594E0,2.9667268E0,2.533385E-2,2.5689816E-1,6.825676E-2,1.4249058E-1,7.137326E-1,-2.7393055E-1,1.15373366E-1,-2.1501346E0,-6.742982E-1,-1.1656912E-1,-4.161587E-2,9.431203E-3,9.648344E-1,-9.275909E-2,-2.5223768E-1,-9.897678E-1,4.659411E-2,-1.8724039E-1,-1.3078195E0,5.589375E-1,1.7246829E0,9.576677E-2,2.3295966E-1,4.2602894E-1,8.764413E-2,6.220185E-1,-1.4409529E-1,1.0427475E-1,2.639886E0,1.5544605E0,3.1583574E-1,1.14292815E-1,6.1232433E0,-1.2369156E-4,1.8605137E-2,-3.3804974E-1,-1.2442907E-1,-1.01327196E-1,-1.575203E-2,-6.143489E-2,-8.349419E-3,-3.8762552E-1,-1.1905928E-1,2.420203E-2,-8.5329756E-2,-1.7795657E-1,-7.985287E-2,-3.523276E-2,2.6948243E-2,7.5724362E-3,1.6262545E-1,-2.0582508E-1,-7.150517E-2,7.18586E-2,1.9047013E-1,-6.571954E-2,2.9283825E-2,1.2307425E-1,2.8760895E-1,3.079837E-1,4.088173E-2,2.8501512E-3,-5.9061337E-2,-2.494371E-1,-1.1606788E-1,-1.2500763E-2,-1.5281616E-1,2.0361901E-3,-6.2150956E-4,1.0897334E-1,2.6852608E-2,-1.06940486E-1,-2.161541E-2,-3.410809E-2,5.217419E-2,-1.4727244E-1,-2.4164772E-2,-6.2608244E-3,7.516621E-2,1.0332463E-1,2.3591511E-1,9.764894E-2,2.0066071E-2,8.8567995E-2,2.8272238E-1,4.6797942E-2,1.7870826E-1,1.444213E-1,6.277282E-1],"categories":[],"categories_nodes":[],"categories_segments":[],"categories_sizes":[],"default_left":[0,0,0,0,0,0,0,0,0,0,0,0,0,0,0,0,0,0,0,0,0,0,0,0,0,0,0,0,0,0,0,0,0,0,0,0,0,0,0,0,0,0,0,0,0,0,0,0,0,0,0,0,0,0,0,0,0,0,0,0,0,0,0,0,0,0,0,0,0,0,0,0,0,0,0,0,0,0,0,0,0,0,0,0,0,0,0,0,0,0,0,0,0,0,0,0,0,0,0,0,0,0,0,0,0,0,0,0,0,0,0,0,0,0,0,0,0,0,0,0,0,0,0,0,0,0,0,0,0,0,0,0,0,0,0,0,0,0,0,0,0,0,0,0,0,0,0,0,0,0,0,0,0,0,0,0,0,0,0,0,0,0,0,0,0,0,0,0,0,0,0,0,0,0,0,0,0,0,0,0,0,0,0,0,0,0,0,0,0,0,0,0,0,0,0,0,0,0,0,0,0,0,0,0,0,0,0,0,0,0,0],"id":4,"left_children":[1,3,5,7,9,11,13,15,17,19,21,23,25,27,29,31,33,35,37,39,41,43,45,47,49,51,53,55,57,59,-1,-1,61,-1,63,65,-1,67,-1,-1,69,71,73,75,77,79,81,-1,-1,83,85,87,89,91,93,95,97,-1,-1,-1,-1,-1,-1,99,-1,-1,-1,101,103,-1,105,107,109,111,113,115,117,119,121,-1,-1,123,125,127,129,131,133,135,137,139,141,143,145,-1,-1,147,149,151,153,-1,-1,155,-1,-1,-1,157,159,161,163,-1,165,167,169,171,-1,-1,173,-1,175,177,179,181,-1,-1,-1,-1,-1,183,-1,185,187,-1,-1,189,191,-1,-1,193,-1,195,197,199,201,-1,-1,-1,-1,203,-1,-1,205,207,-1,-1,209,-1,-1,-1,-1,-1,-1,-1,-1,-1,-1,-1,-1,-1,-1,-1,-1,-1,-1,-1,-1,-1,-1,-1,-1,-1,-1,-1,-1,-1,-1,-1,-1,-1,-1,-1,-1,-1,-1,-1,-1,-1,-1,-1,-1,-1,-1,-1,-1,-1,-1,-1,-1,-1,-1,-1,-1],"loss_changes":[4.738475E3,1.1272812E3,1.850362E3,3.0675854E2,7.3306836E2,4.6195105E2,8.055654E2,1.4320532E2,5.8663563E1,4.561372E2,4.30708E2,8.657953E1,5.4048846E2,2.600044E2,1.8985767E2,2.1367188E1,9.483374E1,1.5194725E1,4.9098916E0,3.7147583E1,1.2774074E2,3.0286728E2,1.2287619E2,1.043338E1,2.0872059E1,4.5939922E1,9.88775E1,9.439508E1,5.1786438E1,1.55911255E1,0E0,0E0,7.583008E-1,0E0,4.6206055E0,6.951462E0,0E0,2.037987E0,0E0,0E0,2.0129395E1,1.0973616E2,3.8671455E1,4.4681534E1,4.490114E1,6.5098643E-1,3.968347E1,0E0,0E0,1.7035446E1,1.8332525E1,7.965866E0,3.1052822E1,2.6548157E1,1.2647034E1,4.087786E1,1.4223743E2,0E0,0E0,0E0,0E0,0E0,0E0,8.042908E-2,0E0,0E0,0E0,8.2701445E-1,1.5221E-2,0E0,1.0978485E1,1.588443E1,1.1164354E1,8.429642E0,2.059042E1,2.3685837E1,2.0992918E0,4.536837E1,1.2069397E1,0E0,0E0,2.276001E-1,1.290802E1,3.3608737E0,1.3327255E1,5.52577E-1,1.5293856E0,2.158245E0,4.23697E0,4.0878415E0,7.477375E0,2.6994476E0,1.4812958E1,0E0,0E0,1.0168177E1,2.4948044E0,1.3011551E1,1.1472717E1,0E0,0E0,2.3691442E-2,0E0,0E0,0E0,1.8455658E0,3.1602E-1,1.19478405E-1,5.78067E0,0E0,1.6874838E0,1.07975006E-1,8.591638E-1,1.1788816E1,0E0,0E0,1.702108E1,0E0,3.8674355E-1,4.6280355E0,1.1838531E0,4.52742E0,0E0,0E0,0E0,0E0,0E0,3.999335E-1,0E0,2.5545425E0,5.9062166E0,0E0,0E0,6.3962606E-4,6.640291E-1,0E0,0E0,2.617097E-1,0E0,1.159588E0,6.990204E-1,1.6042933E0,3.2654457E0,0E0,0E0,0E0,0E0,7.002113E-1,0E0,0E0,2.7540588E0,2.9547691E0,0E0,0E0,6.7908325E0,0E0,0E0,0E0,0E0,0E0,0E0,0E0,0E0,0E0,0E0,0E0,0E0,0E0,0E0,0E0,0E0,0E0,0E0,0E0,0E0,0E0,0E0,0E0,0E0,0E0,0E0,0E0,0E0,0E0,0E0,0E0,0E0,0E0,0E0,0E0,0E0,0E0,0E0,0E0,0E0,0E0,0E0,0E0,0E0,0E0,0E0,0E0,0E0,0E0,0E0,0E0,0E0,0E0,0E0,0E0,0E0],"parents":[2147483647,0,0,1,1,2,2,3,3,4,4,5,5,6,6,7,7,8,8,9,9,10,10,11,11,12,12,13,13,14,14,15,15,16,16,17,17,18,18,19,19,20,20,21,21,22,22,23,23,24,24,25,25,26,26,27,27,28,28,29,29,32,32,34,34,35,35,37,37,40,40,41,41,42,42,43,43,44,44,45,45,46,46,49,49,50,50,51,51,52,52,53,53,54,54,55,55,56,56,63,63,67,67,68,68,70,70,71,71,72,72,73,73,74,74,75,75,76,76,77,77,78,78,81,81,82,82,83,83,84,84,85,85,86,86,87,87,88,88,89,89,90,90,91,91,92,92,95,95,96,96,97,97,98,98,101,101,105,105,106,106,107,107,108,108,110,110,111,111,112,112,113,113,116,116,118,118,119,119,120,120,121,121,127,127,129,129,130,130,133,133,134,134,137,137,139,139,140,140,141,141,142,142,147,147,150,150,151,151,154,154],"right_children":[2,4,6,8,10,12,14,16,18,20,22,24,26,28,30,32,34,36,38,40,42,44,46,48,50,52,54,56,58,60,-1,-1,62,-1,64,66,-1,68,-1,-1,70,72,74,76,78,80,82,-1,-1,84,86,88,90,92,94,96,98,-1,-1,-1,-1,-1,-1,100,-1,-1,-1,102,104,-1,106,108,110,112,114,116,118,120,122,-1,-1,124,126,128,130,132,134,136,138,140,142,144,146,-1,-1,148,150,152,154,-1,-1,156,-1,-1,-1,158,160,162,164,-1,166,168,170,172,-1,-1,174,-1,176,178,180,182,-1,-1,-1,-1,-1,184,-1,186,188,-1,-1,190,192,-1,-1,194,-1,196,198,200,202,-1,-1,-1,-1,204,-1,-1,206,208,-1,-1,210,-1,-1,-1,-1,-1,-1,-1,-1,-1,-1,-1,-1,-1,-1,-1,-1,-1,-1,-1,-1,-1,-1,-1,-1,-1,-1,-1,-1,-1,-1,-1,-1,-1,-1,-1,-1,-1,-1,-1,-1,-1,-1,-1,-1,-1,-1,-1,-1,-1,-1,-1,-1,-1,-1,-1,-1],"split_conditions":[1.7857143E1,-1.875E-1,8.3333336E-2,2.2E1,1.2E1,-2.6086956E-1,2E1,-3.5714287E-1,-3.888889E-1,4.347826E-1,6.32079E0,2E1,2.2E1,8.5714287E-1,2.777778E-1,6E0,1.5E1,2.8E1,2.6E1,8E0,8E0,8.695652E-2,4E0,-2.8E-1,-3.6842105E-1,1.8E1,2.9E1,1.5E1,1.8142857E1,2.3E1,1.1949704E0,-1.9557619E-1,9E0,-5.572961E-1,1.9E1,-4.4444445E-1,5.764723E-2,5.513719E0,1.4279671E-1,-6.1444396E-1,1.3636364E-1,1.4285715E0,6.923077E-1,1.8E1,1.5E1,1E0,-1.1111111E-1,-4.658372E-1,-2.1082604E-1,1.4972776E1,2.4E1,1.6E1,-1.0526316E-1,-1.7857143E-1,2.3571428E1,4.6153846E-1,3.5714287E-1,4.2925548E-2,8.317195E-1,4.7446066E-1,8.232295E-1,-6.8761677E-1,-3.987562E-1,1.1285714E1,-1.426293E-1,-3.7122712E-1,-1.6958259E-1,9.6316063E-1,1.4E1,-4.5586964E-1,1.1E1,-7.0764832E0,1.5E1,1E1,1.1538461E0,1.4E1,1E0,4.2857143E-1,1.9E1,-5.250931E-3,-1.0406119E-1,6E0,6.3358393E0,2.0714285E1,2.1E1,-2.8E-1,2.5E1,1.7000578E1,3.7037037E-2,3E1,-4.761905E-2,2.5E1,2.2714285E1,5.049501E-1,9.1810715E-1,6.356186E0,1.2E1,1.7E1,3.4016802E0,-8.765149E-2,-3.0479762E-1,6E0,-5.864506E-2,6.0184985E-2,1.5540886E-2,3.846154E-1,3E0,3E0,5E1,1.799777E-1,1.24827585E1,6.4705884E-1,1.1E1,1E1,3.3526704E-1,-2.8337878E-1,-6.25E-2,-1.3175202E-2,1.8E1,2.631579E-1,4.046434E0,4.9E1,2.533385E-2,2.5689816E-1,6.825676E-2,1.4249058E-1,7.137326E-1,1.9E1,1.15373366E-1,-4.074074E-1,7.6804304E0,-1.1656912E-1,-4.161587E-2,3.8E1,2.1857143E1,-9.275909E-2,-2.5223768E-1,3E0,4.659411E-2,2.6E1,2E1,1.9E1,1.9E1,9.576677E-2,2.3295966E-1,4.2602894E-1,8.764413E-2,1.9607143E1,-1.4409529E-1,1.0427475E-1,4.6666667E-1,1.3636364E-1,3.1583574E-1,1.14292815E-1,1.8E1,-1.2369156E-4,1.8605137E-2,-3.3804974E-1,-1.2442907E-1,-1.01327196E-1,-1.575203E-2,-6.143489E-2,-8.349419E-3,-3.8762552E-1,-1.1905928E-1,2.420203E-2,-8.5329756E-2,-1.7795657E-1,-7.985287E-2,-3.523276E-2,2.6948243E-2,7.5724362E-3,1.6262545E-1,-2.0582508E-1,-7.150517E-2,7.18586E-2,1.9047013E-1,-6.571954E-2,2.9283825E-2,1.2307425E-1,2.8760895E-1,3.079837E-1,4.088173E-2,2.8501512E-3,-5.9061337E-2,-2.494371E-1,-1.1606788E-1,-1.2500763E-2,-1.5281616E-1,2.0361901E-3,-6.2150956E-4,1.0897334E-1,2.6852608E-2,-1.06940486E-1,-2.161541E-2,-3.410809E-2,5.217419E-2,-1.4727244E-1,-2.4164772E-2,-6.2608244E-3,7.516621E-2,1.0332463E-1,2.3591511E-1,9.764894E-2,2.0066071E-2,8.8567995E-2,2.8272238E-1,4.6797942E-2,1.7870826E-1,1.444213E-1,6.277282E-1],"split_indices":[9,22,22,15,15,22,15,22,22,22,13,15,15,22,22,17,15,15,15,15,15,22,0,22,22,15,15,15,9,15,0,0,24,0,15,22,0,14,0,0,22,22,22,15,15,0,22,0,0,20,15,15,22,22,9,22,22,0,0,0,0,0,0,9,0,0,0,19,1,0,15,19,17,15,22,15,0,22,17,0,0,0,13,9,10,22,15,20,22,1,22,15,9,0,0,14,15,15,13,0,0,0,0,0,0,22,0,0,1,0,12,22,15,15,0,0,22,0,1,22,14,1,0,0,0,0,0,1,0,22,14,0,0,1,9,0,0,0,0,1,15,15,15,0,0,0,0,11,0,0,22,22,0,0,9,0,0,0,0,0,0,0,0,0,0,0,0,0,0,0,0,0,0,0,0,0,0,0,0,0,0,0,0,0,0,0,0,0,0,0,0,0,0,0,0,0,0,0,0,0,0,0,0,0,0,0,0,0,0,0,0],"split_type":[0,0,0,0,0,0,0,0,0,0,0,0,0,0,0,0,0,0,0,0,0,0,0,0,0,0,0,0,0,0,0,0,0,0,0,0,0,0,0,0,0,0,0,0,0,0,0,0,0,0,0,0,0,0,0,0,0,0,0,0,0,0,0,0,0,0,0,0,0,0,0,0,0,0,0,0,0,0,0,0,0,0,0,0,0,0,0,0,0,0,0,0,0,0,0,0,0,0,0,0,0,0,0,0,0,0,0,0,0,0,0,0,0,0,0,0,0,0,0,0,0,0,0,0,0,0,0,0,0,0,0,0,0,0,0,0,0,0,0,0,0,0,0,0,0,0,0,0,0,0,0,0,0,0,0,0,0,0,0,0,0,0,0,0,0,0,0,0,0,0,0,0,0,0,0,0,0,0,0,0,0,0,0,0,0,0,0,0,0,0,0,0,0,0,0,0,0,0,0,0,0,0,0,0,0,0,0,0,0,0,0],"sum_hessian":[6.98E2,4.05E2,2.93E2,1.37E2,2.68E2,1.66E2,1.27E2,1.12E2,2.5E1,1.37E2,1.31E2,6.5E1,1.01E2,9E1,3.7E1,5.5E1,5.7E1,1.4E1,1.1E1,7.1E1,6.6E1,1.12E2,1.9E1,1.2E1,5.3E1,5.4E1,4.7E1,7.5E1,1.5E1,1.7E1,2E1,2E0,5.3E1,2.5E1,3.2E1,1.3E1,1E0,9E0,2E0,1.4E1,5.7E1,3E1,3.6E1,6.3E1,4.9E1,3E0,1.6E1,6E0,6E0,3.2E1,2.1E1,1.7E1,3.7E1,3.4E1,1.3E1,2.6E1,4.9E1,1E0,1.4E1,1E1,7E0,4.8E1,5E0,2.7E1,5E0,7E0,6E0,6E0,3E0,3.3E1,2.4E1,2.2E1,8E0,1.4E1,2.2E1,5.8E1,5E0,2.8E1,2.1E1,1E0,2E0,4E0,1.2E1,5E0,2.7E1,9E0,1.2E1,8E0,9E0,1.3E1,2.4E1,1E1,2.4E1,9E0,4E0,8E0,1.8E1,2.7E1,2.2E1,1E0,2.6E1,2E0,4E0,2E0,1E0,2.1E1,3E0,2E0,2E1,4E0,4E0,7E0,7E0,1.9E1,3E0,1.8E1,4E1,1E0,4E0,1.9E1,9E0,1.9E1,2E0,3E0,1E0,1E0,1.1E1,3E0,2E0,1.5E1,1.2E1,6E0,3E0,2E0,1E1,3E0,5E0,7E0,2E0,8E0,5E0,1.2E1,1.2E1,5E0,5E0,2.2E1,2E0,5E0,3E0,3E0,1.5E1,1.4E1,1.3E1,1E0,2.1E1,1E0,1E0,1.9E1,2E0,2E0,1E0,1E0,1E0,1.8E1,2E0,2E0,2E0,4E0,3E0,3E0,4E0,1.1E1,8E0,1.9E1,2.1E1,3E0,1E0,8E0,1.1E1,3E0,6E0,1.8E1,1E0,2E0,1E0,1E1,5E0,8E0,4E0,1E0,1E0,8E0,2E0,6E0,1E0,7E0,1E0,4E0,1E0,3E0,9E0,7E0,5E0,2E0,3E0,2E0,1.3E1,3E0,1.1E1,1E0,2E1],"tree_param":{"num_deleted":"0","num_feature":"25","num_nodes":"211","size_leaf_vector":"1"}},{"base_weights":[-1.0151818E-1,-2.303685E0,2.2323163E0,-4.421957E0,-1.1522558E0,-1.9187334E-1,4.162752E0,-5.5021086E0,-3.2405393E0,-2.4348292E0,3.4481838E-1,-1.2650322E0,1.3873267E0,2.2762825E0,6.59948E0,-5.835219E0,-2.31602E0,-4.1539397E0,-1.8011637E0,-2.803582E0,3.5872355E-2,-1.7909304E0,1.9495394E0,-2.7704527E0,-4.433561E-1,-2.1410017E-1,3.0989778E0,1.3387935E0,3.7494905E0,4.2667613E0,8.226237E0,-6.528291E0,-4.809983E0,-6.738105E-2,-2.4543627E-1,-2.6222247E-1,-4.464633E0,-2.7997134E0,-9.4208196E-2,-3.8043373E0,-1.962299E0,-1.0958661E0,8.5569376E-1,-2.5225236E0,9.6571183E-1,1.2933009E0,4.475009E0,-3.3019207E0,-9.863254E-1,-7.712646E-1,1.8664345E0,-2.4637063E0,4.6037942E-1,5.5323E-1,4.1152735E0,8.817659E-2,2.5174823E0,3.0528023E0,6.8963426E-1,2.7268128E0,4.987283E0,6.5932374E0,9.785576E0,-1.5930347E-1,-6.632735E-1,-5.824277E-1,-3.6852452E-1,-4.627316E-1,-2.2096944E-1,-3.090782E-1,-1.0810449E0,-6.552376E-1,7.100746E-1,-4.105607E0,-1.671811E0,-1.2561525E0,-2.4123952E0,-1.2476285E-1,-1.6764641E-3,1.6015328E0,-3.2760937E-2,-3.341616E0,-1.3812705E0,1.6459361E0,-1.7974453E-1,-3.208948E-1,1.5327803E0,1.1438084E-1,4.9766994E-1,-3.4003797E0,-4.6945192E-2,1.4152463E-1,-1.328786E0,-1.5701746E0,-2.6988253E-1,-3.8867155E-1,2.682915E0,-2.6682355E0,-5.1600076E-2,-5.143671E-1,1.1626656E0,-7.5919694E-1,9.7623634E-1,2.3519592E0,4.6295185E0,1.9396223E0,-2.8505176E-1,1.3182049E0,3.2207406E0,1.8292361E0,3.5669448E0,1.6244117E0,3.9259455E-1,5.2427983E0,1.4510785E-1,6.951214E0,1.4123516E-1,1.0028254E1,2.2233267E-1,-5.0781727E-2,-1.4003639E-1,2.7052212E-1,-1.4171879E0,-2.662611E-2,1.0207238E-1,-4.247067E0,-2.1528063E0,8.732929E-2,-2.1601534E0,-2.0249004E0,-6.848359E-1,-3.0399814E0,-1.2474313E0,2.2334893E-1,2.2347875E-1,-2.3063736E-1,4.783106E-2,-3.6037132E-1,-4.8042808E-2,-2.1752257E0,-3.4562376E-1,4.486561E-2,1.7707068E-1,3.831431E-1,-6.8271734E-2,-4.8175973E-1,2.1649916E0,-1.6165407E0,-3.6763203E0,7.14016E-4,2.051468E-2,-1.4896275E-1,-1.8186856E-2,-1.1522986E0,-2.1051857E0,4.8409246E-2,-2.189315E0,-9.03872E-2,3.208647E-2,2.9516193E-1,6.6969685E-2,-3.0623636E-1,-1.1219435E-1,1.9138254E-1,-1.2520139E-1,6.1754817E-1,1.96827E0,-2.2991372E-2,-9.0888165E-2,1.3071226E-1,3.1856966E-1,1.0013891E0,2.6919094E-1,5.220054E-1,2.2863308E-1,4.8815824E-2,2.1322834E-1,-1.0541215E0,4.5376682E-1,2.106456E0,-6.795887E-1,1.1131763E-2,3.3635075E0,2.4202323E-1,9.7692055E-1,4.3412747E0,2.1867728E0,1.9019245E-1,4.3541145E-2,3.2320833E0,5.9656596E0,1.9697851E-1,7.298739E0,3.9156622E-1,1.0443729E1,-1.1749268E-4,3.6147945E-2,-1.6092926E-1,-4.2043686E-2,-4.29492E-1,-1.1904001E-1,-1.8027687E-2,-2.6008695E-1,-2.305526E-1,-6.439586E-2,-2.6469824E-1,-1.0653352E-1,-1.3566348E-1,-7.891331E-3,7.126608E-2,-3.234125E-1,-2.2615866E-1,-6.730487E-2,5.0580073E-2,-1.7077733E-2,-5.645053E-3,-3.279451E-2,-2.2966142E-1,-5.413642E-2,1.33278E-1,-7.220217E-2,-2.6400567E-3,6.0111523E-2,-8.705408E-2,1.1043574E-1,9.202229E-2,2.7519828E-1,-1.7769659E-1,-4.8742007E-2,-3.9649722E-1,-2.01737E-1,-5.489534E-2,-1.3387412E-1,-2.2431071E-1,-5.698681E-2,5.0088745E-2,-4.676267E-2,-2.664631E-1,-1.440258E-2,-2.5958976E-2,8.792089E-2,9.4713144E-2,1.8504016E-2,6.86458E-2,2.4375616E-1,2.982235E-3,4.04878E-2,1.4049731E-1,9.711075E-3,8.810316E-4,-1.7637216E-1,9.0166666E-2,-1.787688E-1,2.3198488E-1,7.641258E-2,4.2170715E-2,-1.554355E-1,3.475585E-1,5.609789E-2,1.126737E-1,3.9011003E-3,1.713873E-1,4.8553023E-1,2.5445604E-1,3.8448587E-2,9.271288E-2,3.4289154E-1,1.411954E-1,6.1900705E-1,7.542501E-1,9.67989E-2,1.0910686E0,4.1607475E-1],"categories":[],"categories_nodes":[],"categories_segments":[],"categories_sizes":[],"default_left":[0,0,0,0,0,0,0,0,0,0,0,0,0,0,0,0,0,0,0,0,0,0,0,0,0,0,0,0,0,0,0,0,0,0,0,0,0,0,0,0,0,0,0,0,0,0,0,0,0,0,0,0,0,0,0,0,0,0,0,0,0,0,0,0,0,0,0,0,0,0,0,0,0,0,0,0,0,0,0,0,0,0,0,0,0,0,0,0,0,0,0,0,0,0,0,0,0,0,0,0,0,0,0,0,0,0,0,0,0,0,0,0,0,0,0,0,0,0,0,0,0,0,0,0,0,0,0,0,0,0,0,0,0,0,0,0,0,0,0,0,0,0,0,0,0,0,0,0,0,0,0,0,0,0,0,0,0,0,0,0,0,0,0,0,0,0,0,0,0,0,0,0,0,0,0,0,0,0,0,0,0,0,0,0,0,0,0,0,0,0,0,0,0,0,0,0,0,0,0,0,0,0,0,0,0,0,0,0,0,0,0,0,0,0,0,0,0,0,0,0,0,0,0,0,0,0,0,0,0,0,0,0,0,0,0,0,0,0,0,0,0,0,0,0,0,0,0,0,0,0,0,0,0,0,0,0,0,0,0,0,0,0,0,0,0,0,0,0,0,0,0,0,0],"id":5,"left_children":[1,3,5,7,9,11,13,15,17,19,21,23,25,27,29,31,33,35,37,39,41,43,45,47,49,51,53,55,57,59,61,63,65,-1,-1,-1,67,69,71,73,75,77,79,81,83,85,87,89,91,93,95,97,99,101,103,105,107,109,-1,111,113,115,117,-1,-1,-1,-1,-1,-1,-1,119,121,123,125,127,129,131,-1,-1,133,135,137,139,141,143,-1,145,-1,-1,147,-1,149,151,153,155,157,159,161,-1,163,165,167,169,171,173,175,177,179,181,183,185,187,-1,189,-1,191,-1,193,-1,-1,-1,195,197,-1,-1,199,201,-1,203,205,207,209,211,213,-1,215,-1,-1,-1,217,219,-1,-1,221,-1,223,225,227,229,-1,-1,-1,-1,231,233,235,237,-1,-1,-1,-1,-1,-1,239,-1,241,243,-1,-1,-1,245,247,-1,-1,-1,-1,-1,249,251,253,255,-1,257,-1,259,261,263,-1,-1,265,267,-1,269,-1,271,-1,-1,-1,-1,-1,-1,-1,-1,-1,-1,-1,-1,-1,-1,-1,-1,-1,-1,-1,-1,-1,-1,-1,-1,-1,-1,-1,-1,-1,-1,-1,-1,-1,-1,-1,-1,-1,-1,-1,-1,-1,-1,-1,-1,-1,-1,-1,-1,-1,-1,-1,-1,-1,-1,-1,-1,-1,-1,-1,-1,-1,-1,-1,-1,-1,-1,-1,-1,-1,-1,-1,-1,-1,-1,-1,-1,-1,-1],"loss_changes":[3.7261355E3,9.0466675E2,1.6480684E3,1.4934033E2,4.674257E2,2.67828E2,8.8595337E2,5.7593872E1,7.797522E1,1.1945178E2,3.9077426E2,1.1504671E2,1.760929E2,1.4966522E2,2.874558E2,1.1232788E1,1.637268E-1,6.8526E0,4.5757195E1,8.851343E1,1.7638546E1,1.0125632E2,1.0193762E2,2.8034042E1,4.839831E1,5.2722897E1,7.792749E1,1.0296418E2,7.321887E1,2.745459E1,6.0255127E1,6.444092E0,1.0478882E1,0E0,0E0,0E0,1.1470947E0,5.1629944E0,5.428757E0,2.5901978E1,1.7311035E1,1.2892189E0,7.3415527E0,3.1841202E1,8.866689E0,6.2062973E1,1.603363E1,5.3757324E0,3.6642532E0,2.1606983E1,1.5772776E1,1.8100891E0,1.9080914E1,6.292805E0,9.060638E0,2.4738314E1,2.6116867E1,1.6751434E1,0E0,1.2129608E1,1.4077576E1,4.025757E1,1.9913574E1,0E0,0E0,0E0,0E0,0E0,0E0,0E0,2.1040916E-2,5.321061E0,1.7882686E0,3.0115356E0,1.1829502E1,1.0471634E1,2.3990189E1,0E0,0E0,4.7373114E0,7.170903E-1,1.4766693E1,1.4048817E1,2.5125885E-1,1.6771642E0,0E0,6.599736E1,0E0,0E0,5.8706665E0,0E0,2.4184704E-2,1.0203876E0,2.2691345E0,2.1488869E1,1.3866807E0,1.2690735E0,8.3026123E-1,0E0,6.486741E0,5.8108826E0,2.871263E-2,1.3244925E0,5.1823425E-1,1.0204956E1,6.3695145E-1,1.7524416E1,2.5052969E1,9.3918915E0,4.183918E0,1.7224335E1,2.1415424E0,0E0,1.2694824E1,0E0,2.8902222E1,0E0,1.4978027E1,0E0,0E0,0E0,9.9276036E-2,8.931637E-2,0E0,0E0,7.382202E-1,3.9502106E0,0E0,5.8231354E-2,3.7462883E0,6.812931E0,1.9790085E1,7.21554E0,4.2034426E-1,0E0,6.623593E-2,0E0,0E0,0E0,7.4002075E-1,6.6480255E0,0E0,0E0,2.8367707E-1,0E0,8.977868E0,2.5963623E1,3.9566994E-2,1.5783997E0,0E0,0E0,0E0,0E0,8.3994484E-1,4.157486E-1,7.472574E0,4.4770164E0,0E0,0E0,0E0,0E0,0E0,0E0,2.399568E0,0E0,1.3927646E0,1.9359779E0,0E0,0E0,0E0,8.761075E-2,9.584186E-1,0E0,0E0,0E0,0E0,0E0,1.1329386E1,1.7675055E1,1.3782234E0,5.4723654E0,0E0,4.6463776E0,0E0,9.3964434E-1,1.1936981E1,6.1148453E0,0E0,0E0,4.504776E-1,6.58844E0,0E0,2.8192505E1,0E0,1.3281006E1,0E0,0E0,0E0,0E0,0E0,0E0,0E0,0E0,0E0,0E0,0E0,0E0,0E0,0E0,0E0,0E0,0E0,0E0,0E0,0E0,0E0,0E0,0E0,0E0,0E0,0E0,0E0,0E0,0E0,0E0,0E0,0E0,0E0,0E0,0E0,0E0,0E0,0E0,0E0,0E0,0E0,0E0,0E0,0E0,0E0,0E0,0E0,0E0,0E0,0E0,0E0,0E0,0E0,0E0,0E0,0E0,0E0,0E0,0E0,0E0,0E0,0E0,0E0,0E0,0E0,0E0,0E0,0E0,0E0,0E0,0E0,0E0,0E0,0E0,0E0,0E0,0E0,0E0],"parents":[2147483647,0,0,1,1,2,2,3,3,4,4,5,5,6,6,7,7,8,8,9,9,10,10,11,11,12,12,13,13,14,14,15,15,16,16,17,17,18,18,19,19,20,20,21,21,22,22,23,23,24,24,25,25,26,26,27,27,28,28,29,29,30,30,31,31,32,32,36,36,37,37,38,38,39,39,40,40,41,41,42,42,43,43,44,44,45,45,46,46,47,47,48,48,49,49,50,50,51,51,52,52,53,53,54,54,55,55,56,56,57,57,59,59,60,60,61,61,62,62,70,70,71,71,72,72,73,73,74,74,75,75,76,76,79,79,80,80,81,81,82,82,83,83,84,84,86,86,89,89,91,91,92,92,93,93,94,94,95,95,96,96,97,97,99,99,100,100,101,101,102,102,103,103,104,104,105,105,106,106,107,107,108,108,109,109,110,110,111,111,113,113,115,115,117,117,121,121,122,122,125,125,126,126,128,128,129,129,130,130,131,131,132,132,133,133,135,135,139,139,140,140,143,143,145,145,146,146,147,147,148,148,153,153,154,154,155,155,156,156,163,163,165,165,166,166,170,170,171,171,177,177,178,178,179,179,180,180,182,182,184,184,185,185,186,186,189,189,190,190,192,192,194,194],"right_children":[2,4,6,8,10,12,14,16,18,20,22,24,26,28,30,32,34,36,38,40,42,44,46,48,50,52,54,56,58,60,62,64,66,-1,-1,-1,68,70,72,74,76,78,80,82,84,86,88,90,92,94,96,98,100,102,104,106,108,110,-1,112,114,116,118,-1,-1,-1,-1,-1,-1,-1,120,122,124,126,128,130,132,-1,-1,134,136,138,140,142,144,-1,146,-1,-1,148,-1,150,152,154,156,158,160,162,-1,164,166,168,170,172,174,176,178,180,182,184,186,188,-1,190,-1,192,-1,194,-1,-1,-1,196,198,-1,-1,200,202,-1,204,206,208,210,212,214,-1,216,-1,-1,-1,218,220,-1,-1,222,-1,224,226,228,230,-1,-1,-1,-1,232,234,236,238,-1,-1,-1,-1,-1,-1,240,-1,242,244,-1,-1,-1,246,248,-1,-1,-1,-1,-1,250,252,254,256,-1,258,-1,260,262,264,-1,-1,266,268,-1,270,-1,272,-1,-1,-1,-1,-1,-1,-1,-1,-1,-1,-1,-1,-1,-1,-1,-1,-1,-1,-1,-1,-1,-1,-1,-1,-1,-1,-1,-1,-1,-1,-1,-1,-1,-1,-1,-1,-1,-1,-1,-1,-1,-1,-1,-1,-1,-1,-1,-1,-1,-1,-1,-1,-1,-1,-1,-1,-1,-1,-1,-1,-1,-1,-1,-1,-1,-1,-1,-1,-1,-1,-1,-1,-1,-1,-1,-1,-1,-1],"split_conditions":[1.6285715E1,-1.7857143E-1,-4.761905E-2,-3.5714287E-1,4E0,4E0,4E0,1.6E1,4E0,8.666667E-1,4.0708017E0,-2.7272728E-1,-2.777778E-1,2.1214285E1,5.3184314E0,4E0,1.5260004E0,3.0937726E0,1.4428572E1,-2.2536063E0,4.231402E0,1.3714286E1,6.32079E0,2.2428572E1,7.4498324E0,-5.294118E-1,1.6118292E1,3.1034482E-1,5.3846157E-1,1.8714285E1,3.5E1,-9.886996E0,-5.4545456E-1,-6.738105E-2,-2.4543627E-1,-2.6222247E-1,6.559803E0,1.3642858E1,1.5642858E1,-1.0412143E0,9.438017E-1,3E0,4.4E1,3.817254E0,1.2E1,1.0285714E1,-1.6E-1,8.423215E0,1.3E1,1.9714285E1,2E0,2.4571428E1,5.911899E0,5E0,5.513719E0,4.4177465E0,1.8428572E1,5.882353E-2,6.8963426E-1,4.5092497E0,2.4E1,2.7E1,2.7959194E1,-1.5930347E-1,-6.632735E-1,-5.824277E-1,-3.6852452E-1,-4.627316E-1,-2.2096944E-1,-3.090782E-1,1.7297857E0,2.9863853E0,1.6E1,-6.570077E-1,-5.5016375E0,1.3428572E1,1.5142858E1,-1.2476285E-1,-1.6764641E-3,2E0,5E1,9.6316063E-1,3.0237157E0,7E0,1.4E1,-3.208948E-1,8.695652E-2,1.1438084E-1,4.9766994E-1,5.0054913E0,-4.6945192E-2,2E0,2.3428572E1,2.0777779E1,7.6563077E0,1E0,9.978548E0,8.029707E0,-5.1600076E-2,1.6670483E1,2.2300882E1,4E1,4.1E1,2.0928572E1,2.2214285E1,6.588566E0,1.9714285E1,9.795615E0,1.0371014E1,5.669467E0,2.1E1,1.5705501E1,3.9259455E-1,4.2706084E0,1.4510785E-1,5.8961754E0,1.4123516E-1,5.715476E0,2.2233267E-1,-5.0781727E-2,-1.4003639E-1,6E0,4.725816E0,-2.662611E-2,1.0207238E-1,1.4142858E1,6E0,8.732929E-2,1E1,5E1,3.7037037E-2,7E0,-7.1428575E-2,8E0,2.2347875E-1,4.9E1,4.783106E-2,-3.6037132E-1,-4.8042808E-2,1.2928572E1,2E0,4.486561E-2,1.7707068E-1,1.6E1,-6.8271734E-2,9.682913E0,2.2E1,2.2E1,-2.8E-1,7.14016E-4,2.051468E-2,-1.4896275E-1,-1.8186856E-2,1.7714285E1,1.8606546E1,5.6103644E0,3.1E1,-9.03872E-2,3.208647E-2,2.9516193E-1,6.6969685E-2,-3.0623636E-1,-1.1219435E-1,1.8785715E1,-1.2520139E-1,1.8E1,2.1428572E1,-2.2991372E-2,-9.0888165E-2,1.3071226E-1,4.2E1,2.1E1,2.6919094E-1,5.220054E-1,2.2863308E-1,4.8815824E-2,2.1322834E-1,5.2691307E0,2.1142857E1,5.398412E0,2.1122223E1,1.1131763E-2,2.5E1,2.4202323E-1,2.3785715E1,1.904342E1,3.5E1,1.9019245E-1,4.3541145E-2,1.7822222E1,-3.846154E-2,1.9697851E-1,2.3504148E1,3.9156622E-1,8.181818E-1,-1.1749268E-4,3.6147945E-2,-1.6092926E-1,-4.2043686E-2,-4.29492E-1,-1.1904001E-1,-1.8027687E-2,-2.6008695E-1,-2.305526E-1,-6.439586E-2,-2.6469824E-1,-1.0653352E-1,-1.3566348E-1,-7.891331E-3,7.126608E-2,-3.234125E-1,-2.2615866E-1,-6.730487E-2,5.0580073E-2,-1.7077733E-2,-5.645053E-3,-3.279451E-2,-2.2966142E-1,-5.413642E-2,1.33278E-1,-7.220217E-2,-2.6400567E-3,6.0111523E-2,-8.705408E-2,1.1043574E-1,9.202229E-2,2.7519828E-1,-1.7769659E-1,-4.8742007E-2,-3.9649722E-1,-2.01737E-1,-5.489534E-2,-1.3387412E-1,-2.2431071E-1,-5.698681E-2,5.0088745E-2,-4.676267E-2,-2.664631E-1,-1.440258E-2,-2.5958976E-2,8.792089E-2,9.4713144E-2,1.8504016E-2,6.86458E-2,2.4375616E-1,2.982235E-3,4.04878E-2,1.4049731E-1,9.711075E-3,8.810316E-4,-1.7637216E-1,9.0166666E-2,-1.787688E-1,2.3198488E-1,7.641258E-2,4.2170715E-2,-1.554355E-1,3.475585E-1,5.609789E-2,1.126737E-1,3.9011003E-3,1.713873E-1,4.8553023E-1,2.5445604E-1,3.8448587E-2,9.271288E-2,3.4289154E-1,1.411954E-1,6.1900705E-1,7.542501E-1,9.67989E-2,1.0910686E0,4.1607475E-1],"split_indices":[10,22,22,22,0,0,0,11,0,22,13,22,22,10,13,0,8,13,9,8,13,9,13,11,14,22,6,22,22,9,23,6,22,0,0,0,6,11,10,19,21,0,1,14,1,10,22,14,24,9,0,9,14,0,14,14,9,22,0,13,17,17,21,0,0,0,0,0,0,0,6,21,9,20,8,9,9,0,0,0,1,19,13,1,9,0,22,0,0,14,0,0,9,12,13,0,13,13,0,21,19,1,1,10,11,6,9,6,19,13,18,6,0,13,0,6,0,13,0,0,0,0,13,0,0,9,1,0,1,1,22,17,22,1,0,1,0,0,0,10,1,0,0,1,0,6,23,1,22,0,0,0,0,9,8,13,17,0,0,0,0,0,0,10,0,17,9,0,0,0,1,1,0,0,0,0,0,14,10,13,12,0,18,0,10,8,1,0,0,12,22,0,8,0,22,0,0,0,0,0,0,0,0,0,0,0,0,0,0,0,0,0,0,0,0,0,0,0,0,0,0,0,0,0,0,0,0,0,0,0,0,0,0,0,0,0,0,0,0,0,0,0,0,0,0,0,0,0,0,0,0,0,0,0,0,0,0,0,0,0,0,0,0,0,0,0,0,0,0,0,0,0,0],"split_type":[0,0,0,0,0,0,0,0,0,0,0,0,0,0,0,0,0,0,0,0,0,0,0,0,0,0,0,0,0,0,0,0,0,0,0,0,0,0,0,0,0,0,0,0,0,0,0,0,0,0,0,0,0,0,0,0,0,0,0,0,0,0,0,0,0,0,0,0,0,0,0,0,0,0,0,0,0,0,0,0,0,0,0,0,0,0,0,0,0,0,0,0,0,0,0,0,0,0,0,0,0,0,0,0,0,0,0,0,0,0,0,0,0,0,0,0,0,0,0,0,0,0,0,0,0,0,0,0,0,0,0,0,0,0,0,0,0,0,0,0,0,0,0,0,0,0,0,0,0,0,0,0,0,0,0,0,0,0,0,0,0,0,0,0,0,0,0,0,0,0,0,0,0,0,0,0,0,0,0,0,0,0,0,0,0,0,0,0,0,0,0,0,0,0,0,0,0,0,0,0,0,0,0,0,0,0,0,0,0,0,0,0,0,0,0,0,0,0,0,0,0,0,0,0,0,0,0,0,0,0,0,0,0,0,0,0,0,0,0,0,0,0,0,0,0,0,0,0,0,0,0,0,0,0,0,0,0,0,0,0,0,0,0,0,0,0,0,0,0,0,0,0,0],"sum_hessian":[7.23E2,3.72E2,3.51E2,1.3E2,2.42E2,1.56E2,1.95E2,6.6E1,6.4E1,1.3E2,1.12E2,9.3E1,6.3E1,1.11E2,8.4E1,5.9E1,7E0,3.8E1,2.6E1,1.13E2,1.7E1,4.8E1,6.4E1,3.2E1,6.1E1,3.3E1,3E1,6.9E1,4.2E1,3.6E1,4.8E1,3.2E1,2.7E1,1E0,6E0,8E0,3E1,1.6E1,1E1,5E1,6.3E1,7E0,1E1,3.8E1,1E1,5.2E1,1.2E1,2.4E1,8E0,5.4E1,7E0,7E0,2.6E1,9E0,2.1E1,3.4E1,3.5E1,3.6E1,6E0,1.3E1,2.3E1,2.6E1,2.2E1,1E0,3.1E1,1.2E1,1.5E1,2.7E1,3E0,1.3E1,3E0,6E0,4E0,4.3E1,7E0,2.6E1,3.7E1,6E0,1E0,5E0,5E0,2.1E1,1.7E1,6E0,4E0,2E0,5E1,2E0,1E1,2.3E1,1E0,2E0,6E0,2E1,3.4E1,2E0,5E0,6E0,1E0,1.1E1,1.5E1,2E0,7E0,6E0,1.5E1,5E0,2.9E1,1.4E1,2.1E1,1.2E1,2.4E1,8E0,5E0,2.1E1,2E0,2.4E1,2E0,2.1E1,1E0,2E0,1E0,3E0,3E0,1E0,3E0,3.9E1,4E0,1E0,6E0,1E1,1.6E1,2.3E1,1.4E1,2E0,3E0,4E0,1E0,1.9E1,2E0,9E0,8E0,1E0,5E0,2E0,2E0,1.2E1,3.8E1,4E0,1.9E1,1E0,1E0,5E0,1E0,1.3E1,7E0,3E1,4E0,1E0,1E0,4E0,1E0,4E0,2E0,6E0,5E0,1E1,5E0,1E0,1E0,4E0,3E0,2E0,4E0,1.1E1,4E0,1E0,4E0,1.4E1,1.5E1,1E1,4E0,1E0,2E1,6E0,6E0,1.4E1,1E1,6E0,2E0,7E0,1.4E1,2E0,2.2E1,2E0,1.9E1,1E0,2E0,2E0,1E0,3.8E1,1E0,1E0,3E0,5E0,1E0,5E0,5E0,7E0,9E0,1E0,2.2E1,4E0,1E1,1E0,1E0,2E0,2E0,8E0,1E0,1E0,7E0,1E0,1E0,1E1,2E0,1.3E1,2.5E1,3E0,1E0,1.5E1,4E0,4E0,9E0,6E0,1E0,1.6E1,1.4E1,3E0,1E0,4E0,2E0,5E0,5E0,2E0,3E0,1E0,2E0,1E0,1E0,6E0,8E0,1.3E1,2E0,8E0,2E0,2E0,2E0,1.9E1,1E0,5E0,1E0,3E0,1.1E1,8E0,2E0,1E0,6E0,1E0,1.3E1,2.1E1,1E0,1.7E1,2E0],"tree_param":{"num_deleted":"0","num_feature":"25","num_nodes":"273","size_leaf_vector":"1"}},{"base_weights":[9.189367E-3,-2.0374482E0,2.0616815E0,-4.0363603E0,-8.899177E-1,-2.2140417E-1,3.9178417E0,-4.854107E0,-2.3834717E0,-1.6599188E0,1.5506397E0,-1.4573071E0,1.4176056E0,2.3112361E0,6.5051684E0,-5.8479965E-1,-3.7704449E0,-3.9215012E0,-1.167855E0,-2.9805841E0,-4.244751E-1,-1.5919252E-1,3.6945632E0,-2.970637E0,-7.259542E-1,-6.863252E-3,3.2221618E0,1.5286031E0,4.8281517E0,4.584405E0,8.822884E0,-4.5622015E-1,-2.7237382E0,-4.028339E0,-9.992104E-2,-1.6255144E0,6.506801E-2,-4.4946804E0,-2.276567E0,-1.6876948E0,1.0955796E0,-5.354704E-1,1.9045467E0,2.4267287E0,5.9268904E0,-3.5602636E0,-1.6821336E0,-2.514804E0,-3.3358303E-1,-1.0630707E0,5.0193524E-1,2.4683342E0,5.3464043E-1,-9.3599796E-1,1.83682E0,1.8337557E0,6.1500363E0,3.3111236E0,6.894459E-1,6.7286223E-1,1.0496607E1,-2.779705E-1,-8.022018E-2,-1.5622984E-1,-4.2389503E-1,-1.8430129E0,1.1447296E-1,-4.9470472E-1,4.998726E-2,-4.9286994E-1,-2.6745316E-1,-2.7827873E0,-1.5464965E0,-2.7165942E0,-4.0647835E-1,3.2965443E-1,2.9190943E0,-1.0248094E0,1.6160393E-1,2.0988774E-1,5.63612E-2,2.559703E0,1.4956951E-2,6.277616E-1,1.7359066E-1,-4.17727E0,-1.9057854E-1,-2.0123862E-1,-6.0109496E-2,-2.7168736E-1,-1.0703265E-1,-8.2610756E-1,3.7559173E-1,-1.7039924E0,-3.132995E-2,-1.8669581E-1,1.3782821E0,1.6060647E0,2.9695222E-1,-2.497523E-2,-2.0242302E-1,1.0889024E0,2.9947855E0,3.9899446E-2,1.9488409E-1,4.166918E0,7.213494E-1,1.5001726E-1,3.4623808E-1,5.9438354E-1,1.1518878E1,-2.0168535E-1,-7.303579E-2,7.6909066E-4,-6.647336E-2,-3.2527813E-1,-1.912597E0,-1.906477E0,-7.798799E-1,-3.344439E0,-1.0893003E0,-1.2643983E0,6.443797E-1,-4.504259E-1,8.7473166E-1,1.256805E-1,3.5931382E0,-1.2484286E0,-4.1844368E-2,-3.0099034E-1,8.69434E-2,9.416409E-2,2.8606682E0,-4.4527116E-1,-1.7748947E-1,-1.2765405E0,-6.543795E-3,-9.760748E-2,1.0699469E0,-3.787322E-2,-1.8392107E-1,2.940426E-1,-8.2909636E-2,-8.908269E-1,3.2486552E-1,2.0103927E-1,4.111061E-1,1.8077815E-1,4.6555962E-2,-8.367923E-1,4.6711007E-1,1.6375482E-1,1.4595364E0,1.8999524E0,3.8490527E0,1.5899311E0,5.910521E-1,3.4000283E-1,1.1947862E0,-2.2222038E-1,-1.1294208E-1,-2.0381105E-1,-6.128168E-2,-1.0105646E-1,-1.8121196E-2,-3.4397346E-1,-8.145614E-2,-1.413761E-1,3.087457E-3,-1.5410589E-1,-2.566476E-2,1.4768703E-1,-4.2310716E-3,-1.14530124E-1,-1.4336692E-3,2.7267847E-2,1.4464872E-1,9.200783E-2,3.8435644E-1,-1.4198865E-1,-5.076766E-2,8.161259E-3,-1.1020089E-2,1.2637615E-2,-3.8009644E-2,2.9681686E-1,7.853317E-2,-8.0975436E-2,-1.5202516E-1,2.0658685E-2,-2.5410557E-2,4.6160255E-2,-2.2927603E-2,2.052641E-2,1.1523743E-1,4.7639146E-2,1.3679505E-3,-9.669018E-2,-2.1718884E-2,-2.3078823E-2,5.959726E-2,6.7834853E-4,4.9061395E-2,-1.0656352E-1,-1.8955326E-2,5.310116E-2,1.05751995E-2,-8.7404415E-2,7.149401E-2,5.134786E-2,1.7028117E-1,8.842977E-2,2.2812231E-1,1.8821564E-1,4.136091E-1,3.867073E-2,1.7940603E-1],"categories":[],"categories_nodes":[],"categories_segments":[],"categories_sizes":[],"default_left":[0,0,0,0,0,0,0,0,0,0,0,0,0,0,0,0,0,0,0,0,0,0,0,0,0,0,0,0,0,0,0,0,0,0,0,0,0,0,0,0,0,0,0,0,0,0,0,0,0,0,0,0,0,0,0,0,0,0,0,0,0,0,0,0,0,0,0,0,0,0,0,0,0,0,0,0,0,0,0,0,0,0,0,0,0,0,0,0,0,0,0,0,0,0,0,0,0,0,0,0,0,0,0,0,0,0,0,0,0,0,0,0,0,0,0,0,0,0,0,0,0,0,0,0,0,0,0,0,0,0,0,0,0,0,0,0,0,0,0,0,0,0,0,0,0,0,0,0,0,0,0,0,0,0,0,0,0,0,0,0,0,0,0,0,0,0,0,0,0,0,0,0,0,0,0,0,0,0,0,0,0,0,0,0,0,0,0,0,0,0,0,0,0,0,0,0,0,0,0,0,0,0,0,0,0,0,0,0,0,0,0,0,0,0,0,0,0],"id":6,"left_children":[1,3,5,7,9,11,13,15,17,19,21,23,25,27,29,-1,31,33,35,37,39,41,43,45,47,49,51,53,55,57,59,-1,61,63,-1,65,67,69,71,73,75,77,79,81,83,85,87,89,91,93,95,97,-1,99,101,103,105,107,-1,-1,109,-1,-1,-1,-1,111,-1,113,-1,-1,-1,115,117,119,121,123,125,127,129,-1,-1,131,-1,-1,-1,133,-1,-1,-1,-1,-1,135,137,139,141,143,145,147,-1,149,-1,151,153,-1,-1,155,-1,-1,-1,-1,157,-1,-1,-1,-1,-1,159,161,163,165,167,169,171,173,175,-1,177,179,181,183,-1,-1,185,-1,-1,187,189,191,193,-1,-1,195,-1,197,199,-1,201,-1,-1,203,205,207,209,211,213,215,-1,-1,-1,-1,-1,-1,-1,-1,-1,-1,-1,-1,-1,-1,-1,-1,-1,-1,-1,-1,-1,-1,-1,-1,-1,-1,-1,-1,-1,-1,-1,-1,-1,-1,-1,-1,-1,-1,-1,-1,-1,-1,-1,-1,-1,-1,-1,-1,-1,-1,-1,-1,-1,-1,-1,-1,-1,-1,-1,-1,-1],"loss_changes":[2.9278928E3,7.969486E2,1.4756122E3,1.6008911E2,4.216426E2,3.2009406E2,7.830735E2,6.8421875E1,7.7685074E1,2.761082E2,1.9853862E2,9.745349E1,1.7481842E2,2.2899823E2,2.8453247E2,0E0,2.3209473E1,1.9068604E0,1.4776497E1,7.7175476E1,1.7274353E2,2.5092552E1,5.354236E1,1.6043488E1,4.267847E1,2.1492067E1,3.484265E1,7.2365036E1,9.955322E1,1.0070813E2,4.1539062E1,0E0,2.8503418E-2,2.7262573E0,0E0,1.3557713E1,2.1944234E0,6.567505E0,1.7131866E1,6.3489655E1,5.6301414E1,9.375464E0,1.1997032E-1,4.7648087E0,8.6169434E-1,1.1434677E1,2.717537E0,3.027954E-1,1.8473148E1,8.543059E0,1.655127E1,5.6025696E0,0E0,1.0854891E1,6.862219E1,8.736229E-1,1.0012268E1,2.7494812E0,0E0,0E0,6.000366E0,0E0,0E0,0E0,0E0,2.0086098E0,0E0,3.4679937E-1,0E0,0E0,0E0,7.2752075E0,5.6883163E0,2.394249E1,2.1550453E1,1.3150123E1,8.929604E0,3.4647198E0,4.190949E0,0E0,0E0,5.0979614E0,0E0,0E0,0E0,6.99173E-1,0E0,0E0,0E0,0E0,0E0,1.143556E1,7.3329377E0,7.370262E-1,1.8012172E0,6.0526986E0,6.509861E0,1.6890182E0,0E0,3.1872568E0,0E0,1.7591331E1,2.2615936E1,0E0,0E0,3.1041855E1,0E0,0E0,0E0,0E0,1.1711426E0,0E0,0E0,0E0,0E0,0E0,8.8487244E-1,1.6459274E0,1.1979084E0,1.7787476E0,3.314723E0,3.2289524E0,6.3507843E0,3.922939E0,5.8016644E0,0E0,1.81884E0,9.302597E-1,4.2750128E-2,3.184935E-1,0E0,0E0,5.692978E-1,0E0,0E0,1.0441895E0,6.856508E-1,1.1366596E0,4.0492058E-1,0E0,0E0,2.4910274E-1,0E0,1.487279E-1,1.6439601E0,0E0,1.8955278E-1,0E0,0E0,2.4235344E-1,5.9301138E-2,9.777203E0,7.6412888E0,4.178547E0,1.8129883E0,5.342884E-1,0E0,0E0,0E0,0E0,0E0,0E0,0E0,0E0,0E0,0E0,0E0,0E0,0E0,0E0,0E0,0E0,0E0,0E0,0E0,0E0,0E0,0E0,0E0,0E0,0E0,0E0,0E0,0E0,0E0,0E0,0E0,0E0,0E0,0E0,0E0,0E0,0E0,0E0,0E0,0E0,0E0,0E0,0E0,0E0,0E0,0E0,0E0,0E0,0E0,0E0,0E0,0E0,0E0,0E0,0E0,0E0,0E0,0E0,0E0,0E0,0E0],"parents":[2147483647,0,0,1,1,2,2,3,3,4,4,5,5,6,6,7,7,8,8,9,9,10,10,11,11,12,12,13,13,14,14,16,16,17,17,18,18,19,19,20,20,21,21,22,22,23,23,24,24,25,25,26,26,27,27,28,28,29,29,30,30,32,32,33,33,35,35,36,36,37,37,38,38,39,39,40,40,41,41,42,42,43,43,44,44,45,45,46,46,47,47,48,48,49,49,50,50,51,51,53,53,54,54,55,55,56,56,57,57,60,60,65,65,67,67,71,71,72,72,73,73,74,74,75,75,76,76,77,77,78,78,81,81,85,85,91,91,92,92,93,93,94,94,95,95,96,96,97,97,99,99,101,101,102,102,105,105,110,110,116,116,117,117,118,118,119,119,120,120,121,121,122,122,123,123,124,124,126,126,127,127,128,128,129,129,132,132,135,135,136,136,137,137,138,138,141,141,143,143,144,144,146,146,149,149,150,150,151,151,152,152,153,153,154,154,155,155],"right_children":[2,4,6,8,10,12,14,16,18,20,22,24,26,28,30,-1,32,34,36,38,40,42,44,46,48,50,52,54,56,58,60,-1,62,64,-1,66,68,70,72,74,76,78,80,82,84,86,88,90,92,94,96,98,-1,100,102,104,106,108,-1,-1,110,-1,-1,-1,-1,112,-1,114,-1,-1,-1,116,118,120,122,124,126,128,130,-1,-1,132,-1,-1,-1,134,-1,-1,-1,-1,-1,136,138,140,142,144,146,148,-1,150,-1,152,154,-1,-1,156,-1,-1,-1,-1,158,-1,-1,-1,-1,-1,160,162,164,166,168,170,172,174,176,-1,178,180,182,184,-1,-1,186,-1,-1,188,190,192,194,-1,-1,196,-1,198,200,-1,202,-1,-1,204,206,208,210,212,214,216,-1,-1,-1,-1,-1,-1,-1,-1,-1,-1,-1,-1,-1,-1,-1,-1,-1,-1,-1,-1,-1,-1,-1,-1,-1,-1,-1,-1,-1,-1,-1,-1,-1,-1,-1,-1,-1,-1,-1,-1,-1,-1,-1,-1,-1,-1,-1,-1,-1,-1,-1,-1,-1,-1,-1,-1,-1,-1,-1,-1,-1],"split_conditions":[1.6285715E1,-1.7857143E-1,-4.761905E-2,1.8E1,1.5E1,2.4E1,1.9E1,-3.1578946E-1,-4.375E-1,2.631579E-1,7.1428575E-2,-2.7272728E-1,-2.777778E-1,6.4705884E-1,2.3076923E-1,-5.8479965E-1,1.4E1,6.9266796E0,-2.6086956E-1,1E1,1E1,2.1E1,5.826867E0,2.1E1,1.7E1,-4.5454547E-1,3E1,1.3E1,1.6941864E1,2.5E1,6.5027466E0,-4.5622015E-1,-1.875E-1,1.1214286E1,-9.992104E-2,2.5E1,1E0,2.1428572E-1,3.7037037E-2,8.666667E-1,8.181818E-1,-5.7142857E-2,6.014561E0,1.9E1,1.6E1,-2.8E-1,-3.1578946E-1,2.4E1,2E1,2.0642857E1,2.8E1,-1.875E-1,5.3464043E-1,5.936168E0,3.6842105E-1,9.7E1,1.4E1,-4.347826E-2,6.894459E-1,6.7286223E-1,2.777778E-1,-2.779705E-1,-8.022018E-2,-1.5622984E-1,-4.2389503E-1,5.2894254E0,1.1447296E-1,1.010361E0,4.998726E-2,-4.9286994E-1,-2.6745316E-1,1.3E1,1.3E1,9E0,4.7409062E0,4.117647E-1,4.613644E0,1.8E1,1.7E1,2.0988774E-1,5.63612E-2,9E0,1.4956951E-2,6.277616E-1,1.7359066E-1,1.1E1,-1.9057854E-1,-2.0123862E-1,-6.0109496E-2,-2.7168736E-1,-1.0703265E-1,-1.15384616E-1,-1.4285715E-1,4.5573273E0,9.263343E0,-3.5714287E-1,3.2E1,2.143349E1,2.9695222E-1,1.9E1,-2.0242302E-1,8.3333336E-2,1.5E1,3.9899446E-2,1.9488409E-1,1.125E0,7.213494E-1,1.5001726E-1,3.4623808E-1,5.9438354E-1,2E1,-2.0168535E-1,-7.303579E-2,7.6909066E-4,-6.647336E-2,-3.2527813E-1,-6.666667E-2,2.1428572E-1,4.6496286E0,4.9E1,6.923077E-1,8E0,1.4622222E1,1.2E1,1.2E1,1.256805E-1,6E0,-6.25E-2,1.1E1,8E0,8.69434E-2,9.416409E-2,4.7E1,-4.4527116E-1,-1.7748947E-1,5.228129E0,2.0490747E1,1.5E1,3.3594217E0,-3.787322E-2,-1.8392107E-1,2.3567446E1,-8.2909636E-2,3.9E1,2.5E1,2.0103927E-1,3.4E1,1.8077815E-1,4.6555962E-2,4.1E1,2.1122223E1,1.7E1,1.5E1,4.6666667E-1,4.410278E0,5.2417736E0,5.910521E-1,3.4000283E-1,1.1947862E0,-2.2222038E-1,-1.1294208E-1,-2.0381105E-1,-6.128168E-2,-1.0105646E-1,-1.8121196E-2,-3.4397346E-1,-8.145614E-2,-1.413761E-1,3.087457E-3,-1.5410589E-1,-2.566476E-2,1.4768703E-1,-4.2310716E-3,-1.14530124E-1,-1.4336692E-3,2.7267847E-2,1.4464872E-1,9.200783E-2,3.8435644E-1,-1.4198865E-1,-5.076766E-2,8.161259E-3,-1.1020089E-2,1.2637615E-2,-3.8009644E-2,2.9681686E-1,7.853317E-2,-8.0975436E-2,-1.5202516E-1,2.0658685E-2,-2.5410557E-2,4.6160255E-2,-2.2927603E-2,2.052641E-2,1.1523743E-1,4.7639146E-2,1.3679505E-3,-9.669018E-2,-2.1718884E-2,-2.3078823E-2,5.959726E-2,6.7834853E-4,4.9061395E-2,-1.0656352E-1,-1.8955326E-2,5.310116E-2,1.05751995E-2,-8.7404415E-2,7.149401E-2,5.134786E-2,1.7028117E-1,8.842977E-2,2.2812231E-1,1.8821564E-1,4.136091E-1,3.867073E-2,1.7940603E-1],"split_indices":[10,22,22,15,15,15,15,22,22,22,22,22,22,22,22,0,15,7,22,15,15,15,13,15,15,22,15,15,8,15,13,0,22,10,0,15,4,22,22,22,22,22,7,17,1,22,22,18,15,10,15,22,0,13,22,3,15,22,0,0,22,0,0,0,0,14,0,7,0,0,0,15,15,15,13,22,13,15,15,0,0,16,0,0,0,24,0,0,0,0,0,22,22,14,13,22,1,21,0,18,0,22,15,0,0,22,0,0,0,0,15,0,0,0,0,0,22,22,13,1,22,15,12,15,15,0,18,22,1,16,0,0,1,0,0,13,19,16,13,0,0,8,0,1,15,0,1,0,0,1,12,15,15,22,14,13,0,0,0,0,0,0,0,0,0,0,0,0,0,0,0,0,0,0,0,0,0,0,0,0,0,0,0,0,0,0,0,0,0,0,0,0,0,0,0,0,0,0,0,0,0,0,0,0,0,0,0,0,0,0,0,0,0,0,0,0,0],"split_type":[0,0,0,0,0,0,0,0,0,0,0,0,0,0,0,0,0,0,0,0,0,0,0,0,0,0,0,0,0,0,0,0,0,0,0,0,0,0,0,0,0,0,0,0,0,0,0,0,0,0,0,0,0,0,0,0,0,0,0,0,0,0,0,0,0,0,0,0,0,0,0,0,0,0,0,0,0,0,0,0,0,0,0,0,0,0,0,0,0,0,0,0,0,0,0,0,0,0,0,0,0,0,0,0,0,0,0,0,0,0,0,0,0,0,0,0,0,0,0,0,0,0,0,0,0,0,0,0,0,0,0,0,0,0,0,0,0,0,0,0,0,0,0,0,0,0,0,0,0,0,0,0,0,0,0,0,0,0,0,0,0,0,0,0,0,0,0,0,0,0,0,0,0,0,0,0,0,0,0,0,0,0,0,0,0,0,0,0,0,0,0,0,0,0,0,0,0,0,0,0,0,0,0,0,0,0,0,0,0,0,0,0,0,0,0,0,0],"sum_hessian":[6.95E2,3.48E2,3.47E2,1.26E2,2.22E2,1.56E2,1.91E2,8.3E1,4.3E1,1.69E2,5.3E1,8.9E1,6.7E1,1.19E2,7.2E1,4.1E1,4.2E1,1.8E1,2.5E1,8.1E1,8.8E1,3E1,2.3E1,2.8E1,6.1E1,3.8E1,2.9E1,9.2E1,2.7E1,4.1E1,3.1E1,2.2E1,2E1,1.7E1,1E0,1.8E1,7E0,2.4E1,5.7E1,4.8E1,4E1,2.6E1,4E0,1.6E1,7E0,1.8E1,1E1,1E1,5.1E1,1.2E1,2.6E1,2.3E1,6E0,1E1,8.2E1,9E0,1.8E1,2.8E1,1.3E1,1.6E1,1.5E1,1.9E1,1E0,2E0,1.5E1,1.7E1,1E0,3E0,4E0,1.8E1,6E0,3.2E1,2.5E1,2.6E1,2.2E1,2.9E1,1.1E1,1.5E1,1.1E1,3E0,1E0,1.5E1,1E0,6E0,1E0,1.2E1,6E0,7E0,3E0,8E0,2E0,3E1,2.1E1,7E0,5E0,1.5E1,1.1E1,1E1,1.3E1,6E0,4E0,5.1E1,3.1E1,1E0,8E0,8E0,1E1,3E0,2.5E1,4E0,1.1E1,1.4E1,3E0,1E0,2E0,1.9E1,1.3E1,1.6E1,9E0,1.8E1,8E0,1.2E1,1E1,1.2E1,1.7E1,4E0,7E0,1.2E1,3E0,7E0,4E0,3E0,1.2E1,1E1,2E0,1.9E1,1.1E1,1.3E1,8E0,1E0,6E0,4E0,1E0,6E0,9E0,6E0,5E0,8E0,2E0,2E0,4E0,1.5E1,3.6E1,1.5E1,1.6E1,4E0,4E0,1E0,1E1,8E0,5E0,1.4E1,2E0,6E0,3E0,1.7E1,1E0,6E0,2E0,9E0,3E0,4E0,6E0,4E0,8E0,9E0,8E0,1E0,6E0,9E0,3E0,1E0,2E0,1E0,6E0,1.1E1,1E0,8E0,1.1E1,6E0,5E0,2E0,1.1E1,1E0,7E0,2E0,2E0,5E0,1E0,3E0,6E0,1E0,4E0,1E0,1E0,3E0,1E0,5E0,1E1,8E0,2.8E1,5E0,1E1,3E0,1.3E1,1E0,3E0],"tree_param":{"num_deleted":"0","num_feature":"25","num_nodes":"217","size_leaf_vector":"1"}},{"base_weights":[9.471954E-2,-1.8841004E0,2.0284255E0,-4.4209595E0,-1.1264377E0,7.919373E-2,3.6439586E0,-4.686937E0,-1.474544E0,-2.0080104E0,2.1056814E-1,-9.074228E-1,1.7114736E0,1.9564962E0,5.856782E0,-5.8422154E-1,-4.025434E0,-1.9959055E0,1.0874929E-1,-3.3269598E0,-4.123944E-1,-7.743885E-1,2.1746323E0,-1.9907372E0,-1.9387436E-1,-7.626797E-2,3.8211787E0,9.472524E-1,3.2613943E0,3.7064664E0,7.347502E0,-5.2832735E-1,-3.124648E0,-2.3312752E-1,-7.716542E-2,-5.1111835E-1,-3.0326853E0,-1.7796185E0,7.3145956E-1,-1.256419E0,1.5099356E0,1.4105456E0,4.672618E-1,-3.5624406E-1,-1.6086001E0,-1.4523045E0,3.1380603E-1,-1.6037725E-1,4.5541698E-1,2.9252234E0,7.3575276E-1,-4.7191688E-1,1.4301404E0,2.2985914E0,4.609957E0,2.9582486E0,5.13803E0,5.145337E0,8.869729E0,-6.835432E-2,-3.1832334E-1,-3.449089E0,-1.8869768E0,-2.5648777E0,6.866437E-1,-4.9971275E-2,2.2420743E0,-1.7079746E0,-3.9882395E-1,4.2823654E-1,2.3759296E0,2.1047897E0,5.1637036E-1,-2.7104276E-1,-1.2756934E0,-1.9418995E-1,-7.4694294E-1,-5.159364E-2,8.165421E-1,1.0297618E-1,1.0090246E0,1.7637768E-1,3.2997146E-1,-1.4625423E0,8.253546E-1,6.016943E-1,2.5598803E0,1.3661119E0,3.4129019E0,4.7889047E0,6.944533E-2,3.164844E0,1.0307622E0,5.5683064E-1,2.1345246E-1,3.4316063E0,6.8586535E0,5.412025E-1,9.8093253E-1,-4.1333157E-1,-3.0162103E0,-2.2693296E-1,-8.8639927E-1,-2.8817363E0,-6.577244E-1,-8.327602E-2,1.2397249E0,-4.7048977E-1,5.4992753E-1,1.100694E0,3.2262123E0,-2.0033202E0,-7.740656E-1,-7.096403E-1,7.998799E-2,5.04097E-1,1.5905699E-2,2.593441E-1,5.354309E-2,2.3737662E0,1.4796956E-1,9.770595E-1,4.8721075E-2,-1.7120636E0,-6.404921E-1,-8.091972E-2,-1.244545E-2,-5.11056E-1,3.5004666E-1,3.960317E-1,1.3452399E0,-6.2067795E-1,6.716019E-1,6.078382E-1,1.4588447E-1,-3.7920132E-1,-2.1215694E-1,-2.3608208E-2,1.0107144E-1,-1.2893124E-1,1.8089844E0,3.5993254E0,1.9734435E-1,5.322311E-1,1.8483787E0,1.4921586E-1,4.1007707E-1,1.0862265E-1,4.9428135E-1,2.439412E0,4.2201024E-1,2.8827285E-2,1.1821677E-1,9.2074394E-2,3.8044226E-1,7.4756634E-1,6.527825E-2,-3.1837514E-1,-1.8194206E-1,-1.1192214E-1,-3.737719E-2,-3.0827445E-1,-1.2065144E-1,-7.8846216E-2,-6.7386627E-3,1.3815607E-1,1.94355E-2,-7.552599E-2,3.6401063E-2,7.942222E-2,1.732626E-2,1.2588198E-1,-3.0937194E-4,3.4725565E-1,8.74074E-2,-2.0482679E-1,-3.7239503E-2,-1.0790861E-1,2.9491663E-3,2.946345E-3,-8.038698E-2,1.336813E-2,5.632806E-2,9.358468E-2,2.680849E-1,-2.0231057E-2,4.2426493E-2,1.420908E-2,1.0925392E-1,-3.0039659E-2,2.1515973E-2,-1.7729177E-1,-3.9962675E-2,-9.184026E-2,-2.7108273E-2,1.5441227E-2,-5.793794E-2,6.975307E-2,4.08872E-3,-1.369629E-2,5.8891464E-2,8.1101455E-2,1.6767116E-1,-8.261769E-2,-2.7872724E-4,2.1516545E-2,7.588153E-2,7.578289E-2,1.5524101E-2,4.6480815E-3,-6.78483E-2,-8.485248E-2,7.648977E-2,5.2517634E-2,2.0359221E-1,3.9314714E-1,9.692984E-2,6.836488E-2,5.1985425E-3,2.9395422E-2,2.1611448E-1,2.5592676E-1,3.207903E-2],"categories":[],"categories_nodes":[],"categories_segments":[],"categories_sizes":[],"default_left":[0,0,0,0,0,0,0,0,0,0,0,0,0,0,0,0,0,0,0,0,0,0,0,0,0,0,0,0,0,0,0,0,0,0,0,0,0,0,0,0,0,0,0,0,0,0,0,0,0,0,0,0,0,0,0,0,0,0,0,0,0,0,0,0,0,0,0,0,0,0,0,0,0,0,0,0,0,0,0,0,0,0,0,0,0,0,0,0,0,0,0,0,0,0,0,0,0,0,0,0,0,0,0,0,0,0,0,0,0,0,0,0,0,0,0,0,0,0,0,0,0,0,0,0,0,0,0,0,0,0,0,0,0,0,0,0,0,0,0,0,0,0,0,0,0,0,0,0,0,0,0,0,0,0,0,0,0,0,0,0,0,0,0,0,0,0,0,0,0,0,0,0,0,0,0,0,0,0,0,0,0,0,0,0,0,0,0,0,0,0,0,0,0,0,0,0,0,0,0,0,0,0,0,0,0,0,0,0,0,0,0,0,0,0,0,0,0,0,0,0,0,0,0],"id":7,"left_children":[1,3,5,7,9,11,13,15,17,19,21,23,25,27,29,-1,31,33,-1,35,37,39,41,43,45,47,49,51,53,55,57,-1,59,-1,-1,-1,61,63,65,67,69,71,-1,-1,73,75,77,-1,79,81,-1,83,85,87,89,91,93,95,97,-1,-1,99,101,103,105,107,109,111,113,115,117,119,121,-1,123,-1,125,127,129,131,133,-1,-1,135,137,139,141,143,145,147,-1,149,151,-1,-1,153,155,-1,-1,-1,157,-1,159,161,163,-1,165,167,169,171,173,175,177,179,-1,181,-1,-1,-1,183,185,187,189,191,193,-1,-1,195,197,199,201,203,205,207,-1,209,-1,-1,-1,211,213,215,-1,217,219,-1,-1,-1,-1,221,-1,-1,-1,-1,-1,-1,-1,-1,-1,-1,-1,-1,-1,-1,-1,-1,-1,-1,-1,-1,-1,-1,-1,-1,-1,-1,-1,-1,-1,-1,-1,-1,-1,-1,-1,-1,-1,-1,-1,-1,-1,-1,-1,-1,-1,-1,-1,-1,-1,-1,-1,-1,-1,-1,-1,-1,-1,-1,-1,-1,-1,-1,-1,-1,-1,-1,-1,-1,-1,-1,-1,-1,-1],"loss_changes":[2.6708613E3,6.581388E2,1.1113257E3,5.4999634E1,3.151271E2,2.6083295E2,7.092136E2,3.1506348E1,1.285651E1,3.3745844E2,2.0867746E2,7.7686775E1,2.3035951E2,1.4309329E2,2.3882495E2,0E0,3.9010803E1,1.0751E0,0E0,3.070398E1,1.1703067E2,8.117729E1,6.212146E1,1.8293686E1,4.0066322E1,2.8343523E1,6.7193085E1,4.4534096E1,5.1726807E1,2.336081E1,1.1526782E2,0E0,2.2575073E0,0E0,0E0,0E0,3.0703674E1,6.760744E1,4.8510117E1,2.2553925E1,1.1160225E1,1.6915653E1,0E0,0E0,9.013733E0,4.7656555E0,8.308611E0,0E0,4.969056E0,4.618866E0,0E0,2.3053988E1,4.3384293E1,2.650975E1,9.98703E0,7.091263E0,2.330017E0,4.1059387E1,3.463037E1,0E0,0E0,4.119568E0,6.7876663E0,1.381636E1,8.595575E0,7.322255E0,1.2174789E1,9.206512E0,8.764316E0,6.276035E-2,1.4136963E0,8.070168E0,2.9685702E0,0E0,6.664562E0,0E0,2.4806452E-1,5.161436E0,3.6913767E0,7.41215E0,9.178753E-1,0E0,0E0,6.3350086E0,1.8125935E0,2.5813465E1,5.088318E0,6.2549896E0,1.1056854E1,4.888733E0,0E0,7.3123474E0,1.0888147E-1,0E0,0E0,8.666275E0,3.341086E1,0E0,0E0,0E0,1.8268433E0,0E0,5.364742E-1,3.6887512E0,3.3276534E-1,0E0,7.6938343E-1,4.3148165E0,9.665978E-1,1.4001942E0,1.0207748E0,1.3631058E0,2.7279391E0,1.2773008E0,0E0,3.4312487E-2,0E0,0E0,0E0,3.6729736E0,3.7617558E-1,5.197129E-1,5.294867E-1,5.6936646E-1,1.0856519E0,0E0,0E0,6.805346E-1,1.5828998E0,1.3143264E0,5.6806564E-2,1.0135047E0,2.3480272E-1,3.5755157E-1,0E0,6.6853076E-1,0E0,0E0,0E0,1.2869711E1,2.1355705E0,1.4305496E0,0E0,5.4620147E-1,4.7126045E0,0E0,0E0,0E0,0E0,3.241867E0,0E0,0E0,0E0,0E0,0E0,0E0,0E0,0E0,0E0,0E0,0E0,0E0,0E0,0E0,0E0,0E0,0E0,0E0,0E0,0E0,0E0,0E0,0E0,0E0,0E0,0E0,0E0,0E0,0E0,0E0,0E0,0E0,0E0,0E0,0E0,0E0,0E0,0E0,0E0,0E0,0E0,0E0,0E0,0E0,0E0,0E0,0E0,0E0,0E0,0E0,0E0,0E0,0E0,0E0,0E0,0E0,0E0,0E0,0E0,0E0,0E0,0E0,0E0,0E0,0E0,0E0,0E0,0E0,0E0,0E0,0E0,0E0,0E0],"parents":[2147483647,0,0,1,1,2,2,3,3,4,4,5,5,6,6,7,7,8,8,9,9,10,10,11,11,12,12,13,13,14,14,16,16,17,17,19,19,20,20,21,21,22,22,23,23,24,24,25,25,26,26,27,27,28,28,29,29,30,30,32,32,36,36,37,37,38,38,39,39,40,40,41,41,44,44,45,45,46,46,48,48,49,49,51,51,52,52,53,53,54,54,55,55,56,56,57,57,58,58,61,61,62,62,63,63,64,64,65,65,66,66,67,67,68,68,69,69,70,70,71,71,72,72,74,74,76,76,77,77,78,78,79,79,80,80,83,83,84,84,85,85,86,86,87,87,88,88,89,89,91,91,92,92,95,95,96,96,100,100,102,102,103,103,104,104,106,106,107,107,108,108,109,109,110,110,111,111,112,112,113,113,115,115,119,119,120,120,121,121,122,122,123,123,124,124,127,127,128,128,129,129,130,130,131,131,132,132,133,133,135,135,139,139,140,140,141,141,143,143,144,144,149,149],"right_children":[2,4,6,8,10,12,14,16,18,20,22,24,26,28,30,-1,32,34,-1,36,38,40,42,44,46,48,50,52,54,56,58,-1,60,-1,-1,-1,62,64,66,68,70,72,-1,-1,74,76,78,-1,80,82,-1,84,86,88,90,92,94,96,98,-1,-1,100,102,104,106,108,110,112,114,116,118,120,122,-1,124,-1,126,128,130,132,134,-1,-1,136,138,140,142,144,146,148,-1,150,152,-1,-1,154,156,-1,-1,-1,158,-1,160,162,164,-1,166,168,170,172,174,176,178,180,-1,182,-1,-1,-1,184,186,188,190,192,194,-1,-1,196,198,200,202,204,206,208,-1,210,-1,-1,-1,212,214,216,-1,218,220,-1,-1,-1,-1,222,-1,-1,-1,-1,-1,-1,-1,-1,-1,-1,-1,-1,-1,-1,-1,-1,-1,-1,-1,-1,-1,-1,-1,-1,-1,-1,-1,-1,-1,-1,-1,-1,-1,-1,-1,-1,-1,-1,-1,-1,-1,-1,-1,-1,-1,-1,-1,-1,-1,-1,-1,-1,-1,-1,-1,-1,-1,-1,-1,-1,-1,-1,-1,-1,-1,-1,-1,-1,-1,-1,-1,-1,-1],"split_conditions":[1.6857143E1,-2.8E-1,-4.761905E-2,2.2E1,1.3E1,2.5E1,4E0,-5.3571427E-1,8.247191E0,3.846154E-1,8.3333336E-2,-2.6086956E-1,-2.777778E-1,2.0964285E1,5.5377493E0,-5.8422154E-1,1.4E1,4.3E1,1.0874929E-1,8E0,9E0,2E1,5.715476E0,1.8E1,1.8E1,-5.294118E-1,3.3E1,1.3E1,3.1578946E-1,2.15E1,2.1E1,-5.2832735E-1,-1.00633955E1,-2.3312752E-1,-7.716542E-2,-5.1111835E-1,1.3636364E-1,1.4285715E0,8.181818E-1,-6.25E-2,-1.724138E-1,1.3E1,4.672618E-1,-3.5624406E-1,-4.2105263E-1,-1.3157895E-1,2.1E1,-1.6037725E-1,3.2E1,5.1316013E0,7.3575276E-1,4.6153846E-1,3.1034482E-1,2E1,2.6744465E1,2.3E1,2.275E1,6.4705884E-1,6.593648E0,-6.835432E-2,-3.1832334E-1,-9.52381E-2,1.1E1,8E0,1.1142858E1,1.1E1,4.33995E0,1.8E1,1.7E1,1.3E1,7.323095E0,2.6E1,1.2833333E1,-2.7104276E-1,2.2E1,-1.9418995E-1,3.7E1,-1.0526316E-1,-1.875E-1,-4E-1,-4.4444445E-1,1.7637768E-1,3.2997146E-1,6.283008E0,9.4E1,1.8E1,1.6E1,1.3636364E-1,3.7037037E-2,1.6E1,6.944533E-2,5E0,2E1,5.5683064E-1,2.1345246E-1,1.6E1,7.7643876E0,5.412025E-1,9.8093253E-1,-4.1333157E-1,1.2E1,-2.2693296E-1,2.777778E-1,1.125E0,4E0,-8.327602E-2,1.3428572E1,7.2727275E-1,1.2E1,1.5E1,7.9733143E0,1.3294607E1,1.8E1,9E0,7.998799E-2,4.2201333E0,1.5905699E-2,2.593441E-1,5.354309E-2,-1.6414522E0,3E0,1E0,-2.2849779E-1,2.3129753E1,-3.1578946E-1,-8.091972E-2,-1.244545E-2,6.7567315E0,4.956958E0,2.3E1,2.3E1,2.1934898E1,-3.3333334E-1,2.171951E1,1.4588447E-1,2E0,-2.1215694E-1,-2.3608208E-2,1.0107144E-1,1.5384616E-1,1.0590803E1,2.0433332E1,1.9734435E-1,2.35E1,2.1214285E1,1.4921586E-1,4.1007707E-1,1.0862265E-1,4.9428135E-1,6.058778E0,4.2201024E-1,2.8827285E-2,1.1821677E-1,9.2074394E-2,3.8044226E-1,7.4756634E-1,6.527825E-2,-3.1837514E-1,-1.8194206E-1,-1.1192214E-1,-3.737719E-2,-3.0827445E-1,-1.2065144E-1,-7.8846216E-2,-6.7386627E-3,1.3815607E-1,1.94355E-2,-7.552599E-2,3.6401063E-2,7.942222E-2,1.732626E-2,1.2588198E-1,-3.0937194E-4,3.4725565E-1,8.74074E-2,-2.0482679E-1,-3.7239503E-2,-1.0790861E-1,2.9491663E-3,2.946345E-3,-8.038698E-2,1.336813E-2,5.632806E-2,9.358468E-2,2.680849E-1,-2.0231057E-2,4.2426493E-2,1.420908E-2,1.0925392E-1,-3.0039659E-2,2.1515973E-2,-1.7729177E-1,-3.9962675E-2,-9.184026E-2,-2.7108273E-2,1.5441227E-2,-5.793794E-2,6.975307E-2,4.08872E-3,-1.369629E-2,5.8891464E-2,8.1101455E-2,1.6767116E-1,-8.261769E-2,-2.7872724E-4,2.1516545E-2,7.588153E-2,7.578289E-2,1.5524101E-2,4.6480815E-3,-6.78483E-2,-8.485248E-2,7.648977E-2,5.2517634E-2,2.0359221E-1,3.9314714E-1,9.692984E-2,6.836488E-2,5.1985425E-3,2.9395422E-2,2.1611448E-1,2.5592676E-1,3.207903E-2],"split_indices":[9,22,22,15,15,15,0,22,6,22,22,22,22,